/*
 * golden_8_8_8.h
 * Nazareno Bruschi <nazareno.bruschi@unibo.it>
 *
 * Copyright (C) 2019-2020 University of Bologna
 *
 * Licensed under the Apache License, Version 2.0 (the "License");
 * you may not use this file except in compliance with the License.
 * You may obtain a copy of the License at
 *
 *     http://www.apache.org/licenses/LICENSE-2.0
 *
 * Unless required by applicable law or agreed to in writing, software
 * distributed under the License is distributed on an "AS IS" BASIS,
 * WITHOUT WARRANTIES OR CONDITIONS OF ANY KIND, either express or implied.
 * See the License for the specific language governing permissions and
 * limitations under the License.
 */

#ifndef __PULPNN_TEST_GOLDEN_MODEL__
#define __PULPNN_TEST_GOLDEN_MODEL__

#define WEIGHT_INT8 {-53, 120, -46, -54, 86, 122, -35, 99, 99, -102, -74, 12, 114, 53, -95, -92, 29, 73, -90, 29, 55, -101, 80, -38, -112, 44, -56, -45, -121, -44, 42, -44, 101, -105, -103, -25, -49, 122, 1, 6, -51, 43, -32, 29, -97, -123, 2, 12, -15, -4, 123, 55, 65, -54, 55, -44, -125, 79, 37, 11, 106, 126, -3, 112, -9, -19, -7, -33, -65, -83, 86, -20, -84, -2, -11, -95, -70, -19, 36, -82, 52, 14, 49, 43, -76, -126, 116, -122, -15, -12, 8, 123, -118, -31, -13, 25, -18, 50, 57, -23, -119, -22, -48, -80, -45, 115, -11, 120, -95, 110, -26, -45, -102, -19, 72, -110, -98, -107, 81, -111, 124, 58, -27, -5, -75, -100, -19, 84, 58, 8, -76, -17, 45, -64, -48, -92, -103, 34, -120, 27, -26, -95, 106, 35, 24, -121, -68, -43, 106, 28, -33, -89, 25, -13, -31, 110, 104, 111, -78, 118, 22, -54, -44, -87, 107, -104, 47, -107, 123, -69, 51, 6, 54, 51, -67, -47, 68, 38, 105, 98, -101, 95, -35, -30, 110, -2, 95, -44, -15, 24, 43, 65, 122, 91, 10, 68, -53, 111, -80, 120, 88, 69, 16, -7, 37, 118, -39, -121, -59, -63, 70, -34, -47, 114, 112, 61, 69, -77, -105, 96, -96, -79, 75, 20, -48, -48, -54, -1, -116, 113, -25, -128, -20, 125, 66, -60, 49, -100, -34, 50, 17, -26, 94, 74, 52, 60, 118, 96, -27, 5, -125, -126, 2, -85, 114, -89, 43, 90, -79, 70, -26, 15, 38, 118, 41, -34, -34, -92, -50, 101, 72, -75, 35, -113, -82, 24, 87, -78, 79, -20, -53, -96, -13, -44, 66, -2, -40, 89, \
-102, 109, 11, -37, -62, 84, -103, -79, 106, -119, 47, 51, -38, -40, 10, 26, -108, -60, -101, 32, -53, -94, -121, 67, 1, -53, -125, -74, -53, 99, 42, 84, 4, 126, -26, -75, -68, -75, 111, 106, 21, 107, -74, -85, -27, 114, -88, 118, 73, -50, -104, 42, -126, 49, -14, -28, -55, 37, -84, 4, -80, 98, -114, -122, -11, 73, -45, 111, 101, 120, -51, 65, 89, 16, -52, -94, 70, -101, -36, 28, 109, -46, 0, 41, -80, -22, 74, -19, -39, 52, 55, 12, -6, -62, -45, -42, 27, 18, 67, 114, 61, -48, 29, -22, 1, -103, -64, 125, 118, -41, -65, 14, 82, -104, -22, 29, 26, -41, -90, 108, -27, 84, -53, -103, 112, 32, -123, -10, -24, 35, 41, -80, -36, 100, -7, -102, 44, -66, 2, -74, -9, 15, 104, -120, 13, 26, -26, 70, 89, -50, -9, 42, -11, 94, 46, -121, -82, -44, 110, -98, -90, 3, -112, 18, 84, 89, -95, 24, -106, -65, 2, 9, 125, -1, 123, -15, -22, -24, 118, 30, -33, 122, -126, 114, -117, -66, 81, -19, -65, -114, 82, 90, -57, 81, 46, 23, 17, -44, 66, 47, -15, -7, 97, -97, 23, 18, 33, -49, -72, -17, 90, 101, -102, 60, 55, 81, -20, -105, 14, 24, -27, -21, -30, 1, 68, 112, 104, -60, 44, -107, -113, -40, -24, 88, 84, 11, 47, -33, -106, -47, -82, 116, -3, -112, 96, 44, 50, 88, 67, -118, 79, -13, -16, 32, -43, -53, -84, 81, -106, -85, -82, 64, 64, -48, 18, 67, 115, 25, 120, 9, 92, -34, -11, -127, 61, 124, -22, -20, 123, 83, -35, -84, -104, -79, 105, -22, -117, -52, \
-93, 92, 19, -3, -116, -64, 42, 89, -109, 109, -96, -93, 2, -22, -43, -19, 54, -118, 4, -128, 103, 63, 115, 32, 119, -2, 24, 16, -106, 49, 74, 61, -118, 34, -10, 61, 77, -17, 70, -103, -63, -126, 114, 4, -83, -1, 88, 72, -41, -76, 80, -20, 84, 95, -68, 26, 63, 68, 5, 118, 48, 51, -15, 71, 18, -63, 35, 35, -110, -50, -72, 32, 75, -66, 20, 76, 53, 83, -98, -103, -68, -118, -94, 15, -83, -50, -20, -111, -24, 33, -18, 121, 15, -12, -128, -80, 26, -12, 107, -75, 23, -100, 74, 6, 1, -7, -54, 42, -38, -112, -80, 32, 24, 59, 118, -10, 45, -4, 90, -128, -23, -6, -123, -8, -59, 121, 54, -75, -19, 104, 64, -120, 42, 23, 63, 72, 43, 113, -1, 47, -69, -15, -77, -22, -33, -95, 107, -59, -26, 73, 79, 45, -69, 72, 82, -29, -30, -55, 46, 49, -56, 102, -15, -114, -55, 9, 119, 68, -103, -70, -32, -70, 0, 60, 33, -76, 121, -41, -77, -119, 48, 72, 54, -17, 42, -87, 11, -68, 125, -120, -100, -58, -56, -15, 57, 11, 122, -34, 69, -76, -37, -11, -36, 77, 113, -16, 97, -125, -25, -64, -76, -54, 45, -75, -31, -24, -78, -37, -52, -6, 77, 16, -55, 49, 8, -72, -78, 33, -97, -78, -51, -28, -3, 53, -45, 72, 40, -7, -84, -7, -77, -19, -47, -10, 82, 109, -92, -67, 118, -82, -83, 109, 111, -21, 98, 83, 57, -19, 103, -80, 5, 112, -99, -14, -33, 65, -72, -123, 78, 41, 123, 32, 81, -90, -50, 13, 118, 97, 7, 59, -68, -91, 126, -23, 106, 35, -67, -102, \
-49, -58, 74, -76, -100, 119, 8, 95, 46, -50, -27, 57, -70, -13, -49, -127, 88, 56, 84, -121, -121, -27, -2, -2, 83, 66, 125, -113, -76, -79, -3, 38, -57, -25, 124, -107, 38, 13, -87, 125, 46, -62, -91, -67, 47, -27, -125, 9, -18, 102, 37, 16, -110, 122, 112, -121, -100, 23, -5, -47, -24, 18, -49, -48, -124, 23, -123, -112, 31, -107, 75, 66, -118, -30, -58, -125, 85, 66, -104, 91, 101, -103, -90, 95, 47, -26, 8, 55, -73, 121, 43, -9, -64, -39, -13, -70, 86, 58, 98, -88, -122, 72, -45, 14, 12, -81, 68, -91, 111, -55, 11, 89, 118, 30, -73, -124, 93, 10, 55, -89, -21, 114, -63, -110, 68, -45, -20, 67, -10, -40, -23, -110, 120, -43, -90, 106, -39, -39, -123, -34, 126, -108, -55, -109, -85, -47, -96, -87, -89, 64, 42, 101, 113, -66, 107, 58, -11, 103, 17, -49, -6, -101, 42, 46, 86, -52, -65, -31, -18, 48, 97, -84, 37, 66, 49, 111, -119, 119, 89, 48, -128, -22, -82, -72, -65, -6, -76, 104, 121, -59, -47, -29, -117, -114, 97, -73, 26, 55, -76, -109, -103, 1, -119, 52, -1, -50, -86, -39, 113, 88, -56, -102, 125, -97, -88, 55, -72, 97, 14, 51, 64, 119, -53, 65, 106, 68, 91, -128, 89, 74, 109, 47, 24, 36, 123, 109, 73, 123, -81, -22, 13, -82, 41, 80, -111, 29, -80, 84, -119, 106, -116, 26, 91, -36, -40, 38, -102, -42, 108, -96, -103, 10, -113, -91, 86, -126, 106, 97, 6, 25, 90, -60, 47, 77, -103, 51, -128, 106, 7, 47, -126, 82, 9, -98, 79, -60, 55, 93, \
9, 64, -70, -42, 117, -84, -51, -19, -5, -55, 85, 86, 87, -34, -110, -128, 83, 46, 71, 49, 17, -58, 94, -22, -61, 105, -82, -73, -13, 47, 124, -127, 90, -39, 87, 61, -64, 5, 112, -98, -2, -72, 3, 6, 117, -51, -47, 1, -94, -128, -87, 74, -111, 83, -49, -101, 24, -84, 8, 91, 73, 31, 73, 62, 90, -70, 84, -39, 66, 72, 7, -107, -114, -107, -122, -64, 93, 126, 51, 65, -9, 59, -76, -93, -26, -125, 2, -118, 118, -26, 108, -103, 66, 75, 91, -22, 74, 126, 98, -14, -12, -123, 72, 34, -79, -16, 118, 36, -116, 16, -81, 0, 116, 28, 122, 83, -72, 82, 114, 48, 81, -109, 72, -28, 4, -34, 65, -28, 34, -83, 109, -93, -3, 90, -48, 5, 59, 25, 9, 33, -64, 11, -89, -23, -4, -117, 20, 79, 65, -54, 116, -111, -66, 56, -91, -125, 32, 87, 91, 126, 100, -64, 117, -5, 77, 94, -25, -50, -91, -56, 104, -4, 72, -5, -122, 105, 58, -69, 101, -13, 2, -78, 63, 73, 87, -6, -42, 31, -114, -17, -37, -32, 116, -10, 104, 2, 33, 112, -51, 25, -3, -18, 43, 26, -34, 104, 66, 27, 104, 111, 92, 73, 116, -73, 16, -25, 82, 118, 16, 17, 45, 31, 34, -81, 61, 101, 37, -128, -4, 27, 104, 29, 78, -76, -13, 108, 113, -85, -126, 15, -52, -17, 34, 28, 30, -64, 35, -42, 23, -93, -8, -90, 95, 71, 117, 67, -96, -31, 75, 8, -110, -96, 95, -105, -73, 5, 35, 116, 64, 0, -103, -68, -42, 5, -100, 119, -62, -75, -114, -33, 63, 37, 42, -67, -86, -114, 55, -114, \
-104, -86, -18, 101, 97, -121, -106, 22, -39, -68, 125, -33, -62, 5, -6, -41, 68, -10, 56, 80, 81, 21, 116, 29, -109, -89, -1, -88, -12, 56, -69, -116, -14, 124, -20, 67, -105, 4, -47, -38, -96, 66, 12, -52, -122, 57, -5, 27, 92, 101, -21, 66, 76, -99, -68, 58, -103, -22, -39, -128, 44, -73, 126, 94, -80, -68, -72, 117, -7, -38, 29, 125, 98, 95, 19, 69, -115, -93, -93, 62, 18, 18, 74, 111, 84, -98, 120, -19, 79, 94, 73, 120, 81, 73, 76, 28, 10, -93, -17, 123, 59, 78, 55, 8, 53, 71, -98, 12, -63, -71, 37, -109, 80, -79, -3, -29, -60, 5, 9, 61, -32, -87, -23, -45, 98, -32, 98, 3, -82, 65, -20, -112, -128, -65, -6, 112, 110, -53, -7, 36, 76, 58, 101, -51, -104, 46, 71, 108, -13, 52, -75, -127, -59, 25, -102, -119, 84, -23, -25, 75, -15, -90, 18, 7, 91, 41, 123, 64, 57, -42, 14, -98, 87, -31, 120, -97, -6, 98, -98, 69, 47, -106, -95, 121, -3, -127, -116, -19, -25, 8, -16, 39, 5, 1, -20, 36, -27, -18, 121, -117, 44, -98, 36, 78, -26, 64, 47, 10, 69, 31, -90, 66, -64, 12, 124, 103, 13, 114, -101, 61, -73, 117, -2, -124, -102, 8, 8, -88, -128, 104, 49, -87, 105, -90, 8, 110, -94, -17, 65, -82, 88, 20, 108, -111, -13, 33, -117, -3, 85, 23, -18, 109, 55, 47, -117, 83, -85, -113, 44, -39, 46, 50, -99, -96, 69, -76, -15, -34, 2, 53, -125, -50, -74, 53, 101, -28, -31, 49, -55, 41, -15, -104, -121, 70, 121, 35, -83, -2, \
-17, -83, 83, -99, -120, -45, -56, 70, -83, -106, 103, -90, -38, 115, 27, -105, -55, 73, 21, 34, -97, 119, -99, 42, 121, -92, -85, -106, 117, -90, -60, -106, -118, -76, 112, 50, 82, -5, 109, -18, 72, 19, 117, 24, 59, 111, 23, 51, -61, -107, -8, 113, 78, 122, -50, 20, -37, 8, -94, -91, -104, -40, 58, 117, 74, 44, -36, 33, 74, -37, 55, 6, 13, -90, 11, -64, -118, -83, 74, -88, 106, -110, -22, -16, -123, -33, 42, 68, -50, 118, -116, -102, 101, 120, -99, -49, -30, 126, 83, -98, -88, -6, -91, 64, -120, -8, -108, 98, 114, -20, -47, -69, 51, -119, 117, -92, 124, -85, -115, -77, -28, -69, -83, 40, -128, -119, 60, 95, 17, -122, -80, 32, -23, -73, 49, 124, 36, -68, 126, 22, 100, -98, -58, 26, -26, 23, -101, 7, -53, 98, 29, -77, 111, 36, 38, -111, 34, -10, 9, -93, 70, -20, 77, -20, 51, 65, 83, 38, -62, 80, -114, -92, 58, -1, -1, -26, 71, -46, -59, -10, -65, 40, 110, 55, -19, -45, 38, 34, -83, 80, -92, 76, 7, -32, 119, 68, -37, -8, -7, -72, -21, 85, 95, -38, -69, 67, -43, 21, -40, 56, 65, -82, 25, -58, 56, -50, 121, -94, 113, -81, 7, 121, -43, 4, 1, -66, 83, -95, 60, -122, -107, -54, 110, 115, -30, -80, 100, 25, 102, 19, -89, -33, 3, -57, 47, -8, 92, 6, 60, 43, -50, 77, -111, -18, 90, 80, -27, 80, 81, -91, -79, 10, 116, -73, -101, 16, 15, 113, -34, 82, -25, -28, 79, -128, 5, -95, 125, -107, 10, -48, -58, 22, 56, -3, 30, 80, -43, -79, \
65, -18, -62, 66, -82, -68, 109, 116, 94, 61, -22, -127, 114, -105, -29, -50, 6, 120, 35, 121, -3, -76, -6, 26, 60, 62, 66, 124, -40, -39, 89, -90, 100, 60, -28, 30, 29, 1, -7, 37, 24, -111, 52, -96, -11, 70, 41, -108, -14, 2, 39, -64, -126, 5, 38, 50, -20, 48, -55, -4, 73, 46, 19, -105, -41, 87, -127, -24, 122, -63, 9, 102, 27, 16, 113, -4, -17, -30, 16, 10, 3, -79, 38, -109, -99, -96, 106, -62, 34, 124, -72, 72, -47, -26, -45, 89, -76, 58, 38, -72, 9, 52, -77, -60, 44, -78, -99, 47, 72, -90, 87, -12, 54, 40, 74, 79, -105, -103, -96, -49, -32, -75, 79, -22, 86, -95, 43, -45, -41, 119, -114, 45, -64, 25, 35, 62, -124, -63, -20, 106, -30, 37, 59, -90, 43, -34, -26, -114, 72, -82, -63, -75, 39, 23, -73, 31, 24, 104, 80, -112, -50, 84, 88, -36, 112, -75, 98, -17, -54, -104, -18, 95, -111, 92, 65, 44, -10, 40, -1, 45, -52, -89, -51, 77, -9, 62, -109, 51, -46, 78, -112, 115, -24, -128, 89, 56, -70, -43, -17, -10, -32, 84, 108, 70, 16, -8, 52, 67, 59, 0, 81, 91, -65, 38, 113, 103, -15, -66, 123, -65, -58, 69, -36, 125, -52, -14, 116, -63, 102, 76, -32, -103, -53, 105, -16, -23, -55, -54, -37, 76, 27, -108, 99, 17, 107, -54, -122, -32, -10, 6, -120, -116, 119, 15, 36, -25, -119, 46, -61, 99, -93, 107, -70, -70, -8, -44, -105, 42, -63, 83, 60, -113, 91, -73, 30, 28, -76, -59, -110, -41, 118, -128, -20, -35, -103, 124, 52, 55, \
-37, 84, 26, -8, -42, -52, 124, 83, -65, -29, -27, -124, -71, -116, -102, -45, -82, 33, 47, -73, 61, -40, -28, 104, 27, 119, 95, 102, 81, -114, -78, -14, 4, 25, 117, -36, 122, -99, -99, -81, 47, -103, -33, -74, 111, 26, -17, 26, 91, -4, -120, -32, 68, -37, 86, 84, -52, 94, -106, -17, 30, 10, -106, 33, 40, -119, -121, -11, 38, 55, -26, 36, 44, 112, -58, 46, -7, -83, -35, 60, 78, -47, -86, -75, 59, 120, -56, 92, -60, 13, 46, -105, -103, -10, -84, -80, 40, 106, 81, 2, -47, 54, 66, 42, 70, -113, 63, 43, 75, 13, -119, -77, -100, -67, -123, 54, -10, 48, 41, 27, -118, 58, -92, 49, -39, -92, 116, 62, -56, -9, 66, 52, 19, 97, 93, 22, -55, 6, -54, 61, 40, -31, -116, -27, -51, -118, -80, 114, 38, 73, -116, -16, -58, -6, 7, 121, 66, -15, -51, -81, -73, 83, -62, 28, -124, 117, 68, 64, -19, 0, 125, -25, -29, 31, -84, -94, 79, 121, -49, 22, 10, 38, 65, 95, -71, -127, -84, -19, -82, 30, 92, 51, 45, -75, 52, 99, -1, -70, -25, 4, 110, -123, 92, 101, -39, 14, 62, 46, -57, 81, 69, 40, -90, 5, 22, -5, -12, -16, 89, -41, 88, -63, -108, -41, 3, -27, -36, 27, 115, 14, 119, -74, 35, -66, 74, 56, -123, 26, -10, 111, 19, 15, -13, 22, -34, -123, -101, -121, -9, -88, -83, -101, 20, -53, 40, -91, 7, -23, 15, 123, -20, -54, 12, -58, 120, -1, 18, -99, -31, 107, 124, 37, -17, -115, 76, -122, -13, -8, 123, -45, 15, 111, 61, 82, -104, -128, -57, 109, \
-83, 10, 67, 1, -37, -74, -73, -80, -90, -99, 9, 107, -84, -43, -93, 76, 13, 5, 32, 64, 21, 95, -63, 117, -61, -7, -52, -118, 11, -74, -35, -21, 26, 117, 7, -89, 23, -51, 96, 80, -64, -4, -54, 6, 64, -50, -73, 9, 27, 32, 105, -19, -80, 61, -104, 68, 0, -5, -50, -75, -102, 53, -65, 101, 91, -25, -74, 6, -104, -51, -79, -40, 3, -82, 85, -120, 70, 116, 71, 29, -61, 106, 4, -128, -51, -71, -101, -53, -20, 74, -89, -55, 21, 43, 97, -62, -115, -8, 7, 111, 84, 67, -56, 76, 55, 111, -98, 123, 110, 63, 28, -95, 1, 29, 110, 106, 108, 9, 17, 123, -31, -120, 118, 3, -5, 100, 54, -102, 11, 122, 3, 12, -63, -28, -24, -58, -55, 96, -93, -13, -27, -29, 105, -106, 7, 7, -102, 102, -15, -20, -83, 48, 100, 23, 31, -11, -20, 108, 115, -30, -14, 49, -42, -106, -25, -21, -122, -94, 121, 61, -45, 60, 25, -116, 2, 13, 110, -111, -120, -12, 73, -16, 55, -110, -99, 108, -125, -107, 112, 106, 62, 66, -33, 108, -8, 5, 19, 81, 97, 68, 124, 114, -90, -21, -65, 29, -14, -22, -31, -127, -34, -98, -35, -12, 95, 64, -122, -34, -121, -120, -97, -105, 121, -83, -105, 69, -88, 107, 115, 111, -87, -16, 41, 63, 118, 38, -9, 5, 50, 97, -89, 107, -35, 7, -80, -90, -117, 82, 30, 27, 80, 19, 63, 1, -24, -124, -53, -110, -29, 28, -104, 79, -123, -3, 19, 12, -31, -72, 89, -7, -103, 26, 24, -116, -59, 72, 4, 23, 10, -23, -119, -41, 75, 9, -2, -127, 112, -9, \
-41, -102, -75, 46, 64, -16, -117, 32, -102, 107, 89, -9, -86, 58, 33, 106, -114, 30, -16, 37, -53, 61, -9, -56, -31, -62, -22, 5, 123, -73, 45, -88, -100, 28, -99, -12, -3, 9, 105, 67, 96, -70, 69, -63, 12, -29, -128, -127, -31, -107, -86, 20, 92, 93, -113, 49, 25, -67, 89, 44, -115, 96, -16, -45, -66, -70, -40, -37, -72, 15, 52, 88, -107, -42, 29, -43, 63, 84, -61, 2, -100, -56, -87, 112, -46, -102, -45, -32, 79, 112, 120, -55, 20, 74, -106, -84, 65, -104, 51, 72, -74, -116, -116, 97, 93, -10, 74, 65, -117, -53, 0, 36, -111, -35, -122, -118, -97, -52, -96, -110, -66, 7, 111, 76, -39, 64, 95, -89, -76, 123, -96, 80, 30, -102, -62, -7, 60, 103, -28, -48, -102, -7, -69, -80, 53, 19, 46, 51, -58, 110, 79, -67, -36, 98, -84, 118, -89, -48, -83, -30, 125, -118, 59, -68, 80, 87, -124, -23, -128, 25, 66, -110, -30, -68, 102, -47, 0, 84, -94, 25, -123, -35, -4, -60, 29, -49, 47, 27, 110, -17, 107, -119, 53, 112, -112, -3, -49, 61, 27, -30, -29, -101, 60, 70, 64, 87, 35, -68, 68, 122, 17, -42, 50, 7, 3, -71, -3, -43, -124, 86, -72, 94, -70, 48, -82, 46, 99, 29, 39, -4, -77, -110, 15, -59, 44, -18, 1, 41, -117, -38, 98, -75, 67, -54, -44, 92, -18, -118, 120, -126, -125, 65, 11, 20, -87, -74, -124, 0, 1, -109, 39, -93, -122, -110, -78, 80, 0, 94, 38, 120, -125, -113, -114, -24, -81, -20, 111, 109, 85, -61, 41, 121, -75, 104, 105, -21, 55, -69, \
124, 17, -12, 103, -73, 56, -19, -36, 17, -16, 23, -104, -64, -79, -83, 35, 120, -29, -38, -104, 28, -56, 54, -19, 111, -107, -15, 93, 40, -85, 45, -2, 21, 73, 63, 18, -56, -121, -65, -46, -60, -61, 8, 113, -53, 121, 60, -5, -110, -16, -83, 49, -33, 11, 37, -3, -9, 51, 94, -100, 73, 70, 96, 16, 70, 7, 102, -51, -28, 21, 8, -76, 73, 86, -74, 0, -43, 107, 7, -23, -32, -11, -47, -9, 0, -79, -59, 22, 6, 75, -86, -15, -28, -43, -51, 40, -122, -42, 124, -81, -105, 8, 102, -117, 59, -107, -123, -60, 91, -86, -106, -116, 92, -79, 93, -77, -8, -10, -29, -105, -57, -7, 58, -124, 52, -120, -112, -105, 25, -69, -122, 1, -70, -12, 87, 52, -66, -128, 60, 68, -53, -78, -97, 5, 122, 98, 15, 27, -60, -104, 116, 92, 12, -117, -23, -9, 115, 75, 69, -88, 23, 46, -21, 78, -95, 12, 2, 32, 84, 56, 17, 31, 103, 124, 122, -114, -125, -95, -9, -60, 69, 65, -95, -121, 91, 31, -123, -81, -87, -23, 29, -11, -113, 78, 101, -20, 70, -57, -45, 21, 121, -55, -72, 108, 53, -111, -100, 25, -74, -105, -27, 125, -43, -24, -20, 75, 74, -44, 6, 122, 69, 81, 105, 94, -101, 59, -106, -7, 14, 7, 104, 74, -72, 52, -19, -43, -60, -112, -122, -49, 113, -90, 61, 35, 88, -85, -127, 104, 80, -13, 98, 96, 86, -69, 41, -121, 92, 71, 64, -78, 101, -126, 31, 98, -62, 65, -84, -49, -50, -78, -61, -3, 58, -96, 93, -117, 66, 17, -35, 72, -75, 51, -18, 39, -95, 96, 42, -42, \
86, -10, -106, -37, 56, 26, 112, -90, 102, 31, 116, -41, 66, 84, -110, -80, -42, 49, 36, -118, -128, 15, 120, -67, 72, -116, 15, -116, -88, 42, -54, 99, -124, 81, -84, -125, -14, -5, -37, 27, 80, 21, -87, 3, -82, 6, 68, -105, -94, -45, -54, -121, -87, 32, 73, -44, -14, -114, 18, -103, -35, -9, 90, 51, -92, -47, 47, 98, -16, -96, -1, -59, -118, -37, -80, 36, 34, -121, -70, 26, 67, -125, 71, -126, 9, -96, 114, -53, 28, -62, -62, 103, -107, 75, -126, 83, -90, 113, 54, -84, 42, -15, -26, -122, -4, 28, -123, -100, -57, -83, 89, 109, 58, 48, 15, -121, 28, -16, 73, 31, -63, 67, 49, 7, -44, 7, 97, -68, 90, 65, 92, 39, 119, 50, -38, -42, -41, -46, 46, -71, 120, 97, 49, -94, 119, -86, 26, -44, -103, 10, 4, 114, -110, 31, 70, 8, -119, -95, 121, 109, 40, -13, -28, 101, -91, -96, 111, 91, 71, 121, -111, -22, -67, -57, -17, 81, -71, 37, 84, -104, -90, -75, 66, 120, -25, -96, -106, -46, -16, 83, -72, 31, 84, -84, 3, -120, -114, 68, -94, 26, -63, -115, -83, -114, 63, 68, -96, -105, 28, -31, -53, -100, 78, 24, -107, 60, 56, 109, -123, 46, 42, 12, 106, 25, -24, -13, 34, -100, 57, 94, -63, -57, 36, 107, -80, -54, 87, 20, -50, 18, -76, -29, -42, -4, -53, 6, 125, -1, 53, 60, -115, 3, 23, 81, 115, -21, -77, 58, -101, -80, -75, 113, -83, 58, 116, 84, -121, -63, 119, -75, 45, -53, -9, 100, 14, 104, 74, -22, 112, -96, -52, -14, -94, -116, 119, -44, -49, -20, \
-69, -26, 83, -127, -100, -57, -27, -121, -4, -43, 45, -124, -105, 99, 93, 68, -34, -92, 70, 54, -122, 105, 95, 36, 93, 115, 45, -8, -5, -41, 56, 97, 98, -62, -2, 38, 55, -95, -78, -96, 108, -64, 118, 42, 111, -63, -80, 23, -38, 88, 58, -107, 77, -30, -98, 43, -8, -59, 36, 122, 59, 120, -116, -47, 124, -111, -5, 57, -116, 37, 51, -88, 61, -79, 122, -65, -97, 98, 59, -6, -89, -82, 31, -76, 69, -85, -99, -50, 32, -20, 29, -120, -85, 54, 16, 106, 99, 112, 52, 123, -108, 88, 59, -64, 3, 24, 56, -22, -2, -48, -62, -62, 6, -43, 123, 61, 11, -20, 88, -44, 47, -7, -53, 111, 17, 76, -28, -54, -47, 16, 35, -25, 92, 49, 59, 112, -36, -61, -98, 97, 41, 67, 53, 78, -117, 122, 48, -50, 50, -91, -40, 110, -14, -52, 48, -107, 106, -85, -26, 120, 50, 66, 124, -83, 86, 36, 11, 116, 32, 75, -30, -33, -122, 96, 22, 124, -50, 124, 86, -5, -41, -27, -27, -78, 101, -91, -92, 21, -2, 66, -20, -74, 95, -8, -111, 115, -24, -117, 112, 84, 124, 85, 94, -91, 108, 25, -79, -39, 30, -87, -12, 49, 48, -61, 2, -69, 109, -70, 35, -61, -100, 111, 4, 93, -81, -20, -119, -30, -25, 21, 118, -63, -113, 104, -84, -110, 60, -77, -6, -117, -124, 71, -22, 33, -16, 113, -113, 58, -41, 83, -102, 51, -30, 39, 9, 67, -74, 59, -68, 76, 100, 5, 122, -52, -2, -104, -115, -38, -61, -7, 43, 57, 88, 50, -20, -52, -30, -36, 44, -17, -12, 82, -92, 26, 124, 126, 45, -108, \
-76, 118, -114, -106, -113, -100, 4, -8, 2, 41, -17, 109, -128, 64, -40, -60, -22, 116, 46, 22, -59, -112, -18, -107, -105, 80, 99, 123, -55, -51, 67, -118, 103, 31, 40, 46, -69, 97, 91, 101, 77, -123, -81, -91, 35, -94, -72, -23, -66, -113, -95, -4, -80, -42, 110, 5, -97, 30, 27, 20, 64, 109, 85, -103, 23, 85, 108, 0, 98, 112, 49, -124, 101, -56, 70, -119, 17, -23, 82, -70, 66, -63, 31, -45, -70, 35, 19, -104, -2, 55, -31, -43, -103, -60, 9, 77, 54, -70, -9, 75, 114, -128, 37, -70, 123, 70, 9, 90, 5, -31, -17, -24, -62, -87, -20, -59, 23, -79, -15, -13, -68, 123, -69, 100, -18, 66, 12, 114, -65, -100, 5, 28, 60, -53, 118, 53, 42, -51, 121, -49, -115, -68, -9, 113, 120, 42, 124, -3, 23, -57, -34, 100, -21, -110, 114, 75, -54, 63, -111, -5, 63, -90, 74, 11, 8, -96, 23, -47, -110, 6, -6, 110, -45, -2, -72, -87, -102, 85, 51, -102, 40, 66, -69, 109, 116, 11, -86, -108, -122, 38, -50, -43, 17, 63, 78, -28, -7, 79, -108, 20, -44, -64, 50, -125, 19, -67, -8, -67, 98, 85, 62, -50, -115, 40, 80, -95, -59, 73, 20, -107, 126, 65, 22, 17, -10, 21, -123, 115, -110, 85, 84, -34, 99, -22, 2, -88, -94, 26, -9, -102, 11, 39, -128, 27, -109, 69, -115, 125, 2, -67, 60, -13, -45, 9, 108, 126, -47, 114, 116, -50, -83, 116, 3, 100, 121, 7, -59, 32, -24, -63, 103, 2, -78, -96, -5, 3, -62, -85, -34, 91, 91, 15, -123, -26, 74, -82, 86, -35, \
112, -42, 68, 90, -37, 80, -99, -42, 105, -3, 65, 21, -110, 11, 14, -85, 125, -44, 64, -3, 122, 114, -5, 80, 80, -87, 51, -106, 55, -86, 14, 21, -114, -94, -44, 124, -34, -67, -91, -116, -41, 3, 78, -123, -19, -117, 16, 105, 29, -8, 57, -51, 31, 19, 71, -64, -121, -33, 51, 25, 124, -13, -102, -44, 32, -36, -93, -57, 16, 105, -20, -91, 45, 57, -20, 30, 1, -78, -48, 2, -71, -98, -86, -110, 91, -62, 119, -86, -86, 63, -61, -42, 29, -76, 35, -56, -56, 113, 35, 87, 73, 69, 22, 110, 49, 10, -101, 83, 57, 64, 38, -3, -104, -78, 37, 107, -49, -65, 83, 25, 103, 67, -65, -38, 62, -78, -30, -91, 106, -55, -128, -42, -11, 53, 6, 107, 97, 80, -41, 46, -83, 75, -56, 55, 100, 92, 96, -2, 77, -95, 111, 52, -128, 43, -106, -8, 43, -94, -24, -106, -82, 82, -98, 114, 82, -89, 74, 35, -35, -31, 24, -85, 120, -25, 110, 52, -116, -116, 8, -43, -63, 48, 17, 56, 52, 111, -99, 25, -92, 109, -67, -115, -37, 0, -2, 88, -12, 40, -114, -18, -55, -3, -17, -12, 25, 38, -36, -121, 96, -116, -34, 79, 27, 81, 58, -104, 109, 33, -34, -63, -91, 60, -23, 93, -83, 52, -112, 124, 14, -115, -48, -27, 111, -60, -32, 48, 1, -114, -49, -68, 7, -50, 31, -115, -69, 60, 88, -107, -52, -90, -31, -80, -21, -47, 6, -42, -60, 79, 122, 81, 93, -48, 88, -13, -124, 98, 103, -40, 104, 50, -22, 113, -45, -114, -3, 27, 32, 17, 54, -50, -33, -25, 29, 43, -81, -93, -39, -32, \
-26, 85, 99, 45, -56, 7, -49, 113, -88, -60, 30, 19, -108, -74, 5, -56, 15, -31, 62, 12, 73, 68, -37, 81, -98, -100, 95, 50, 74, -65, -21, 112, 118, -98, 66, 57, -25, -80, 24, -86, 123, 42, -6, 27, 16, -34, -108, -29, 100, 53, 37, 53, 107, 54, 25, 120, -10, 35, -123, 45, -75, -46, -26, 13, 8, -28, 19, 74, -88, 57, 30, -77, 45, -36, 32, -30, -12, -45, 67, -25, 65, -13, 91, -1, -13, 11, 11, 35, 125, 125, -65, -30, -58, -41, -35, 82, -95, -53, -113, 82, 101, -33, -21, -83, 53, -87, 112, 120, 22, 97, -12, 21, 32, -124, -3, 100, -112, 51, 50, 89, -5, -58, 110, 111, -108, 56, -104, 11, -13, -67, 53, 54, 123, -124, -19, 36, 125, -65, 39, -81, -18, -91, -52, 37, -122, -66, 4, -2, 91, 114, 114, -20, -62, 13, -106, -3, 81, -8, -104, 97, 61, 102, 112, 25, 75, 21, -27, 16, 83, 31, 55, 109, -61, -31, 89, -102, -13, 87, -4, -120, 28, -48, -38, 105, -62, 66, -24, -43, -95, -64, -29, -22, 51, -90, -116, -53, 114, 78, 82, -28, -117, 68, 111, 33, -87, 84, -37, -75, -59, 32, 86, -76, 107, -49, -69, -8, -46, 77, -43, 15, 25, -123, -16, -79, -100, -84, 12, 25, -76, 96, -48, -125, -43, 45, -122, 107, 7, -43, 6, -105, 117, -20, 115, 26, -65, -52, 65, -33, 101, -76, -62, 71, -72, -115, 84, 5, 100, 74, -105, -58, 46, -128, 67, 90, 31, -117, 55, 70, 95, 106, -44, 33, 102, -81, -8, 87, 8, 79, -41, 15, -26, -23, 99, -37, 30, -44, -55, -112, \
10, 68, -43, -11, 22, 124, 77, 48, 52, -78, 101, -14, 49, -127, 59, 119, -31, 112, -85, 40, 108, 19, -106, -69, 109, -42, -40, 45, -65, 70, 30, 123, 30, 114, 58, 3, -86, -112, 1, 53, -32, 119, 64, 113, -127, 47, 21, 123, -126, 51, 63, 74, -66, -7, -94, 107, 62, -69, 44, 49, -83, -20, -97, -52, 114, -52, 72, 76, 16, -65, 100, 65, -104, 25, 108, 40, -86, 35, -34, 4, 84, -9, -69, 80, 126, 15, -125, -72, 111, -42, -110, -83, 29, 3, -107, 45, 16, -105, -1, 42, -84, 51, -86, 22, -128, 83, -24, 6, -109, 66, 25, 105, 83, -84, 101, -83, 67, -98, 78, 66, 6, -61, -97, 6, 69, 66, -128, -106, 86, 104, -59, -116, 103, -5, 93, 90, -116, -40, -111, -49, -56, -28, 25, -125, -61, -16, 4, 37, 77, -99, 12, 93, 18, 99, -120, 57, 6, -5, 54, 81, 42, 70, 111, 53, -45, 76, 4, 62, 86, -81, 110, -16, -9, -95, -48, -115, -121, -15, -35, -32, 51, 95, -113, -16, -123, -111, 5, 37, 107, -16, -109, 101, 54, -46, -61, -72, -31, -33, 78, 24, 93, 105, 25, 65, -28, 20, 67, -44, -10, -78, -11, 6, -29, -78, -104, -16, -125, 46, -84, 111, -79, -113, -35, -117, 6, -19, 0, -85, 58, 44, 36, 111, -8, -106, -26, 116, 105, 31, -82, -83, 114, 6, -80, -62, -37, -103, 85, 11, 76, 24, -120, 78, -76, -60, 21, 20, -85, 35, -35, 78, -12, -17, -74, -63, 110, -118, -7, -55, 51, -38, -30, 84, -28, -80, 66, 15, 3, -101, 96, -43, -20, -71, 54, 42, 69, -93, 77, 62, \
-98, 114, -119, -93, 52, -94, 64, 114, 43, -32, 54, 25, 103, 56, -87, 70, 99, 9, 82, -107, 30, -126, 50, -36, 49, 5, 44, -92, 9, 91, -47, -21, 5, 79, 71, 89, 38, 6, 41, 10, -101, -57, 56, -79, -91, -96, -10, 6, -35, -73, 23, -107, 64, -100, 75, -115, -83, -74, -51, 91, -64, 97, -88, -12, 101, 82, -27, -67, 21, 19, -47, -20, -24, -120, 14, -91, 92, 92, -111, -106, 100, -3, -6, -21, -6, -95, -27, -71, 4, 28, -20, 64, -90, 107, 105, -78, -41, -75, 107, -1, 38, 3, 97, -76, 114, 28, 60, -90, -33, 120, 76, 41, 7, 28, -74, -70, 58, 71, 68, 1, -89, -58, -83, 17, -125, -57, 75, -32, 48, -56, 95, -118, -107, -109, 82, 116, -5, 8, 122, -32, -9, 97, 12, -20, 45, 95, 97, -24, -70, 61, 41, -110, 108, -23, -51, 79, -97, -76, 13, -65, -78, -49, -97, 29, -114, -2, 91, -72, -18, -37, 17, -33, -121, -113, 53, -89, -64, -1, -117, 49, 13, -108, 29, -113, -128, 113, -52, 94, 36, 67, 71, 29, -53, -52, 108, -60, 102, -87, -50, -128, -54, -73, 89, -73, 8, 40, -40, 48, 86, -104, 106, 90, 88, -81, -38, 28, 55, 7, 90, -123, -4, 31, -61, -3, -97, -112, 54, -109, -95, 89, 12, -26, 38, 1, 36, -82, 108, -128, 76, 77, 124, -101, -68, 91, -13, 121, -48, 59, 83, 113, -120, 51, -89, -28, -124, -56, -57, -60, -109, 27, 42, -19, -14, -42, -2, 110, 13, -117, 15, 125, -96, 63, 82, -13, -112, 34, 73, -20, 102, -30, 6, 75, 123, -100, 72, 78, 109, 68, \
71, 64, 8, -30, 45, 69, 100, 97, 113, -41, -38, 95, 54, -125, -121, 101, -26, -44, -16, -98, -37, 31, 72, 71, -44, -78, 67, -37, -33, -82, 47, -25, -63, 83, -122, 77, 52, -60, -69, 28, -41, 27, 64, 20, -70, 10, -114, 122, 120, -18, -8, 100, -1, 48, -96, -123, -43, 118, -109, -78, -61, -41, 28, 48, 54, 39, -56, -38, 82, -114, 92, 41, -45, -66, -90, -106, 19, -7, 124, 38, -122, -65, 14, -95, -108, 94, 126, -55, 40, 7, 107, 104, -19, -1, -87, -35, 6, 79, -85, 47, 88, 116, 36, -100, 61, -30, 29, -2, -9, 72, -73, -52, -13, -110, -1, 96, 80, 23, 36, 73, 73, 120, -98, -17, 69, 16, 14, 44, -7, 16, 125, -83, -52, -117, 15, -2, -127, -109, -62, 32, -30, -77, -79, -54, 33, 116, -72, 3, 125, -30, -80, -31, -93, 29, 85, 71, 50, -6, -101, -70, 10, 15, 80, 32, 42, -85, 30, 35, -13, 30, 36, 107, -30, -43, 88, -19, 79, -70, 70, -66, 49, 108, 113, 45, -72, 81, 50, -22, 64, 80, 103, -83, 62, -109, -86, 84, 11, -124, 52, -48, 17, -98, 34, -49, 113, -74, 114, 85, 93, 67, -100, -4, -108, 87, -25, -103, -31, 71, -64, 1, -70, -95, -51, -72, -93, -79, -109, 50, 24, -120, 121, -20, 121, 50, -88, 53, -12, 18, 74, 59, 21, 83, -42, -2, -60, 13, 19, 87, 126, 126, -81, -122, 43, 75, 125, -10, 118, 26, 28, 36, 95, 119, -82, -42, -8, 20, -111, -95, -32, 105, -100, -13, 83, -104, 89, -88, 121, -26, -118, 14, 118, 15, 7, -125, 76, 94, -73, -52, \
30, -71, 23, -82, -13, -33, -110, 82, 61, -114, -97, 66, -3, -75, -2, -110, -124, -118, 36, -4, -122, -25, -5, -102, -74, 11, 86, -5, 57, -39, 19, 98, 42, -116, -33, 69, 51, -4, 20, 46, -44, -18, 59, 114, -93, -103, 32, -31, -61, -16, 13, 63, 11, -20, 51, 16, -56, 48, -123, 67, 7, -42, -94, -117, -11, 52, 79, 0, 26, 23, -11, -76, -88, -76, 37, -70, 113, -112, 76, -117, 85, -45, -117, 29, 46, 30, -20, -85, -34, 74, 42, -121, -39, -47, -42, 120, 30, -35, 49, 99, 103, -23, -126, -110, 119, 69, 121, -37, -28, 27, -69, 78, -87, 71, -106, -58, -17, -87, -27, 37, 59, 75, 3, -120, 70, 30, 116, 14, 76, 46, 48, 45, 60, 25, -60, 44, 96, -19, 108, -79, -6, 104, 29, -46, 14, -103, 78, 63, -19, -12, 114, 33, 58, 123, -89, -108, -98, -122, 61, -56, -25, 28, 109, -67, -117, -16, -103, 53, 97, 40, 22, 4, 15, -35, 106, -101, 83, -71, -128, 16, -116, -57, -125, -102, -66, -65, 45, -71, 56, 2, 36, -48, -21, -19, -63, 20, 29, -70, 92, -106, 16, 2, 94, 85, 121, 6, 2, 31, 72, 121, 78, -73, 92, -30, 71, -121, -12, -73, -43, -56, 42, 63, -26, 81, 123, -103, -20, -120, 85, 60, 5, 37, 30, 85, 5, -96, -28, 73, -92, 97, 79, -46, -71, -113, 95, 79, -115, 89, 81, 30, -96, 113, 22, -22, 122, -25, -44, 126, 70, -47, 61, -58, -123, -80, 126, -91, 57, 67, 73, -111, -87, -25, 41, 99, -20, -68, -17, -101, -26, 88, -17, -105, -80, 104, 88, -121, 116, 124, \
-78, -73, 72, 87, 68, -26, -31, -103, -18, 124, 124, 101, 47, 118, -34, -42, -10, -11, -77, -76, -68, -117, -23, -30, 85, 12, 89, -26, 82, 25, 41, -63, 11, 56, -122, -89, -86, 35, 46, 118, -18, 79, 16, 72, 31, -42, -73, -105, -110, 66, 44, 20, 22, 56, 62, 6, -46, -71, 107, -128, -22, -34, 9, 76, 107, -39, 28, 14, 44, 35, 84, 121, -74, 16, 96, -25, 9, 114, -30, 118, 78, -121, -22, -17, 116, -76, -32, -79, 84, -40, 122, -75, -63, -100, 5, -21, -14, -42, 63, -72, 29, 77, -110, 30, -128, 45, -118, 102, -104, 99, 65, 109, -26, 10, 86, 9, 102, -12, -120, 7, 117, -6, -114, -52, 28, 38, 68, -115, 112, 72, -25, 86, 25, -8, -1, 118, -16, 66, 98, -16, -1, 105, 102, 115, -48, -32, 44, -117, -103, 84, 39, -112, 5, 70, 80, -86, -108, 33, 9, -54, 1, 34, -68, 35, -27, -47, -26, -86, -128, 73, 5, -83, -93, -101, -106, -122, -76, -88, -115, -28, 88, -73, -37, 47, -61, 15, -59, -11, -54, -54, -61, -20, 68, 7, 62, 106, -23, -45, -35, 66, 20, 68, -34, 56, -54, -79, -40, -55, -38, -93, 104, 13, 77, -32, -3, -75, -76, -120, 38, -33, -51, -53, -79, -89, 53, -46, 6, -109, 85, 123, 21, 114, 10, 42, 86, -78, -95, 115, 31, 122, 112, 105, 16, 103, 17, 16, -73, 76, 126, 77, 55, 90, 55, -97, -25, -124, 99, 54, 80, -127, 108, 69, 109, -26, -94, 85, 7, 29, -11, 72, -55, -22, 119, 28, 103, -68, -16, 9, -86, -127, -15, -90, -90, -90, -45, 21, -104, 109, \
86, 98, -36, -48, 16, -77, -65, -31, -49, 65, 108, -13, 86, 53, 101, -57, -60, 58, 75, 22, 32, -113, 12, 22, 102, -16, -8, 17, -5, -29, -15, -6, 88, -100, -47, -117, -20, -74, -115, -17, -43, -34, 91, -102, 76, -113, 103, 30, 116, -49, -12, 117, 41, -18, 10, -62, 117, -121, -92, -127, 23, -49, -104, -54, -82, -39, -62, -84, -5, -7, 15, -121, -2, -62, 66, 8, -91, -100, 41, 118, 97, -97, 20, 61, 22, -52, -13, -63, 9, -58, 55, 54, -118, -121, 37, 1, -99, -8, -45, 49, -83, -103, 34, 113, 24, 68, -90, -107, -54, -5, 101, 0, -86, -40, 103, -8, 68, 20, 104, -16, 104, -114, -30, 12, 3, 93, -79, -15, -13, -70, 26, 46, -116, 80, -110, -121, -3, -45, -88, 98, 71, 77, 83, -64, -109, 92, -24, -19, -28, 107, 32, -37, 124, 116, -29, -120, 26, 65, -82, 44, 123, 0, -70, 111, -114, -95, -36, 17, -73, -83, -123, 43, -65, 46, 112, -43, -97, -87, -41, -27, -91, -79, 6, 5, -123, 73, 97, 71, -6, -126, -62, 75, 103, -78, -56, 53, 47, -39, -78, 52, 2, -77, -95, 37, 36, 101, 41, 6, -55, -87, 86, 87, 40, 39, 86, -53, -43, -123, -44, -34, -28, 115, -109, 59, 50, 38, 73, -71, -126, 34, 78, 69, -61, -64, -126, -36, 104, 49, -15, 16, -75, -34, -92, -13, 5, -7, -111, -96, -60, 92, 91, 16, 20, 24, 57, 84, -3, 74, 73, 70, 11, 118, 119, -8, -19, -26, -35, 23, 30, 3, 71, -36, 111, 21, 74, -11, -107, 55, -92, -29, -98, -5, 97, 10, 9, -43, 13, 47, \
-25, 80, -91, -98, 52, -82, 37, 51, -1, 87, -96, 73, -11, -41, -55, 38, -97, 65, -2, 104, -9, -95, -4, -118, -41, 100, 17, -74, -4, 3, 29, 74, 10, -110, 24, -87, 64, -47, 68, -84, 17, -105, -101, -127, -109, -40, -83, 91, -19, -1, -62, -1, -118, 62, 19, -20, -101, 17, -2, 30, -120, 82, -123, -14, 35, -110, -95, -11, -52, 41, -19, -58, -1, 90, -32, -38, 9, 43, 121, 43, -48, 44, 14, -47, -2, -61, -65, -119, 78, -59, 17, 51, 98, 94, 53, -111, 2, 28, 55, -29, 20, 84, -24, -35, -74, 14, -56, 75, 22, -12, 79, 31, -39, 83, 11, 49, -24, -92, -77, -93, -51, 32, 55, -35, 90, -122, -59, -93, -122, -64, 114, -94, -58, 104, 35, 56, -102, -51, -101, -54, -22, -51, 45, -3, -15, -66, 75, -48, 60, -26, -42, -13, -87, -110, 44, 109, 100, -86, 15, 94, -127, -46, 15, -110, 9, 15, -82, 87, 50, -94, 68, 59, -7, 119, 45, -67, -45, 46, 49, -28, -101, 118, 39, 124, 79, -17, -119, -48, -62, -84, -47, 79, -47, -115, 9, -41, -69, -121, -46, 121, -109, 85, 118, 61, 110, -112, 36, -93, -44, 108, 69, -125, 109, -79, -76, -17, 7, 95, 59, -66, -17, 48, -1, 73, 116, 63, 60, 17, -85, -61, 42, -114, 47, -87, 122, 117, -2, 55, -47, 102, -41, 108, 121, 62, 47, -111, -11, 125, -74, 111, -2, -42, 34, 124, -120, -32, 58, 14, -7, 91, 80, -88, 91, 121, -104, -24, -9, -122, -66, -106, -105, -106, -16, 26, 6, 18, -48, 24, 24, -119, 42, -94, -11, -99, -109, -123, -123, 81, \
-80, -76, -29, 25, -91, 44, -111, 111, 29, -65, -17, -123, 123, -36, 118, -15, -68, 56, -104, -119, -111, 35, 11, -40, 89, -86, -126, 78, 22, 54, -126, 69, 38, 54, -22, -64, -16, -23, -41, -121, -53, -106, -83, 100, 36, 68, 27, -114, -27, 122, -49, 116, -85, 8, -113, -96, 37, -35, -84, 12, 60, 112, -20, -94, 44, 113, -100, -101, 28, 93, -93, 40, 68, -95, -105, 22, 83, -10, 24, -105, 35, 22, -13, 92, -128, -90, -84, -1, -80, -121, 59, 112, 63, -29, 3, 57, -28, 79, -41, 18, 9, 24, -37, -69, 0, 101, 114, -95, 15, 69, 0, -120, 10, -49, -30, 80, -57, 3, 112, 20, -122, 122, 88, -109, 118, -102, 4, -1, 86, 20, -28, -84, -65, 18, 34, -47, 50, 29, 82, 57, -27, -128, -59, -53, -100, 42, -106, -55, -54, 96, 65, 125, -77, 110, 126, -109, -55, 48, 59, -115, 33, -117, 104, -19, -112, -106, -70, -63, 45, -107, 31, 19, 57, -59, -69, 101, -3, 36, 117, 64, -35, 57, 60, 71, 84, 118, 58, 86, -49, -23, 53, -9, -108, 58, -110, -81, -125, 78, 93, 75, -12, -90, 67, 61, -11, 105, -89, -72, -26, -4, 85, 69, -103, 26, 109, -25, 79, -26, -29, 99, -41, 53, -4, -114, 23, 28, 64, 114, 31, -73, -114, -7, -41, 8, 3, -54, 23, 99, 109, 116, -108, 93, -123, 97, -88, 98, -4, -99, 63, -48, -96, 109, 88, 101, -87, -90, 83, 46, 25, -96, -117, -15, -51, -80, 51, 106, -34, 27, -117, 28, -87, 124, -31, 54, -118, -76, -40, 3, 83, -77, 91, 78, 54, 85, 23, -42, -109, 18, \
-62, 113, -62, 18, 35, 23, -58, 40, -26, 49, -113, 113, -120, -114, -60, -19, -114, -59, 59, 61, 109, 79, 14, 84, 113, 16, -113, 126, -37, 109, -46, -116, 95, -43, 116, -44, 115, -30, -89, 62, 16, -22, -65, 11, 54, -38, 18, 15, 86, 8, 94, 40, 74, -65, 48, -27, -22, -84, -39, 110, 78, 111, 7, -119, 71, 77, -40, 71, 86, -25, -55, 126, -14, -3, 116, -29, 58, 104, 116, 35, 115, 85, -36, -75, -54, 38, 58, -15, -7, -94, 45, 77, 74, -79, 9, 3, -117, 60, 74, -37, 8, -5, 77, -14, 28, -20, -20, -94, 14, 54, -122, -2, 94, -41, 112, -73, 72, 91, 119, 34, -81, 12, 8, -40, -104, 39, 84, 92, -3, 91, -81, -87, -23, 96, 74, -18, -13, -29, -92, -55, -105, 13, -42, -49, -88, 74, 83, -109, 29, 78, -5, 72, 76, -110, 51, 56, 13, 5, 3, 32, -127, 82, -92, -27, -112, -33, 75, -30, 70, -111, 95, 71, -93, -123, -96, -61, 44, 81, -79, -118, 6, -92, -128, -59, 1, 103, 23, -40, -22, -113, 121, -3, 15, 107, 81, -99, 103, 23, 6, 80, -2, 30, -45, -13, -108, -123, -19, -23, -42, -84, -81, 94, 72, 1, 0, 23, -101, -42, -5, -49, 31, 108, -22, 15, 86, 19, -86, -110, -122, -79, -77, 72, -9, 50, -79, 58, 121, -98, 34, -19, -20, 46, -41, 26, 67, 66, 83, -27, -49, -118, -45, -25, -61, 88, 78, -31, -26, -9, -18, 55, -50, -48, 97, -84, -53, 3, -14, 107, -110, -117, 54, -60, 56, -23, 9, 118, 48, -89, -18, 32, 124, -83, -116, 69, -33, -49, 15, 71, \
-11, 69, 84, 1, -39, 122, -51, 36, -96, -26, -20, -13, 22, -77, -118, -78, 17, -89, -122, 92, -83, 13, 84, -53, -123, 99, 52, -36, 8, -90, 96, -35, -81, -97, -11, 61, -105, 35, 78, -22, -67, -72, 87, 116, 105, 101, 106, -61, -55, 39, -46, 30, 33, 48, 88, -83, 126, 32, -109, -82, -96, 90, 53, -41, 5, 51, 35, -105, -27, -111, -89, 42, -3, -63, 14, -10, 32, -51, 59, -13, -79, -13, -52, 43, -80, 77, 71, 60, 0, -84, 34, 80, 51, -95, -44, 60, -68, 86, -51, 29, 32, 119, -14, 20, 25, 74, 66, -54, -124, -43, -73, 91, -43, 81, -87, 122, -74, -123, -61, -9, -29, -121, 56, 47, -6, -69, 99, 0, -3, -35, -82, -110, -7, -90, -98, 64, -71, -56, -100, -19, -119, -120, -5, -4, 15, 19, 51, 57, 85, -45, -20, -26, 13, 73, 86, -36, 57, -94, -51, 90, 25, -82, -47, 22, -48, -98, 40, 12, 58, 66, -91, -116, -32, 68, 77, 64, 123, 17, 1, 15, 87, -126, -6, -57, -97, 67, -77, -119, 114, -24, -120, -34, 118, 42, -112, 63, -94, -64, 0, -65, -53, 32, -39, -50, -127, -93, -31, 42, 2, 64, -28, 93, -127, -46, -90, -117, -64, -79, -91, -88, 114, -109, -59, -18, 14, 68, 99, -6, 106, -59, 76, 73, -23, -60, -45, 68, 12, 11, -61, -92, 64, 28, -71, 96, -9, -119, 59, 96, 8, -105, 80, 4, -42, -116, 54, -122, 45, -7, -128, 40, 95, 111, 56, 49, -104, -100, -33, -60, -2, 47, 103, -15, 124, -18, -80, 56, 110, 93, -73, -85, -5, 85, 124, 106, -106, -92, 33, -48, \
-2, 88, 94, 102, -52, -117, -65, -35, 108, 103, 65, -9, -59, -109, 69, -70, 40, 98, 123, -74, 48, -66, 27, 48, 83, -74, -32, 32, -118, -83, -59, 27, 43, 47, -39, -3, 52, 112, 102, 26, 61, 25, -63, -25, -33, 44, -111, -126, 17, -47, 90, -53, -32, -53, -125, -10, 54, -96, -86, 45, 74, -4, -94, 91, 65, 83, -47, -117, -3, -94, 101, 79, 13, 47, -114, 83, -64, -121, -11, -47, 78, -45, 92, 101, 60, -64, -78, 79, -18, -67, -57, 39, 104, 97, 110, 32, 17, 53, -57, -113, 29, 85, -30, 45, -65, -69, -15, 105, -11, 0, -61, -66, -29, -112, -79, -73, 120, 91, -34, 119, -104, 118, 54, -35, 33, -32, 114, 86, -114, -23, 89, 96, -62, 85, 111, 89, 100, 109, 70, -128, -126, 49, -46, -45, -122, -114, -19, -40, 26, -7, 52, 67, 58, 93, 87, -118, -78, 89, 42, 79, -35, -61, -123, -124, 21, -95, -28, -71, -128, 51, 41, -80, 7, 126, 119, -51, -10, -73, -87, 24, 23, 58, -109, 86, 6, 21, -90, -31, 81, 81, 86, -75, 30, 105, 66, 93, -99, -116, -104, 14, -5, -33, 70, -18, 12, -73, 100, 66, 53, 123, 43, 0, -70, -60, -17, 41, -80, -34, 68, -95, -84, 51, -68, -103, 105, -83, -124, -67, -119, 83, 117, 99, 41, -74, 114, -43, 26, -24, -127, -45, -1, -107, 109, -45, 2, 22, -117, -125, 64, -49, 21, -8, 31, 120, -49, -56, -100, 32, 101, 90, 93, -106, -5, -10, 116, 61, 105, -100, -5, 84, -23, 39, 59, 61, 88, -75, 45, 23, 79, -75, 113, 67, -106, -91, 51, 42, 124, -62, \
-40, 96, 80, 47, -116, 71, -109, -126, -61, -65, -86, 86, 32, -28, 32, -39, 24, -120, 93, 9, -19, -50, 103, -63, 80, -102, -50, 70, -76, -106, -56, 64, -24, -3, 103, 85, 126, -69, -75, -60, -28, 79, 110, 65, 100, -66, -43, -92, 41, -9, -104, -119, -58, 120, 11, -12, -105, 58, -83, 60, -89, -80, 76, -9, -86, -60, 35, -26, -44, -2, 76, 67, -42, -57, -29, -65, 119, 43, -81, -97, -41, -62, 122, 97, 102, 67, -86, -122, -14, 65, -1, 101, -49, 30, -62, -73, 91, -52, 42, 104, -107, -126, 86, -33, -66, -97, -97, -82, -100, -8, -121, 92, -21, -29, -105, -67, 34, 17, 104, 26, 106, 17, 15, 84, -12, 34, 108, -27, 4, -113, 5, 50, -90, 83, -30, 119, -3, 13, -110, 103, 22, 92, 16, 64, -99, 66, 123, -32, -60, -102, 39, -69, 81, -76, 46, -64, -65, -97, 103, -91, -3, 67, -119, -58, -39, 118, -34, -23, -85, 14, -39, 80, 65, 92, 92, 84, -45, -36, -99, -66, -2, 126, 34, 19, -30, 114, -16, 36, -103, -115, 62, 9, 104, -86, -52, -91, 9, -24, -119, 112, 29, -47, -106, -49, -62, 91, -42, -108, 28, -123, -13, 110, -75, 0, -107, -123, -114, -22, -111, 17, 21, -109, -56, 58, -4, -78, -100, 117, -104, 8, -23, 120, -77, -26, -17, 109, 63, 20, -43, -20, -107, -2, -31, -84, -121, -79, -68, -120, -86, -104, -118, -119, 28, -44, 71, -117, 69, -116, -40, 107, -28, 76, 82, 97, 106, 79, -125, 44, 79, 119, 21, 46, 21, -115, 85, 57, 2, 101, 98, -106, -31, 43, 60, 4, -110, -27, 103, 1, \
-113, 104, -56, 22, 104, -3, 104, -69, -15, -100, -74, 57, 41, 98, -31, 121, 88, -36, -60, 37, 66, -22, -76, -81, 51, 21, 77, 119, -5, 76, 99, 72, 71, 16, -52, -67, -17, -42, 1, 115, -97, -55, -27, 108, 98, 16, 46, 109, 103, 41, -118, -37, 17, -108, 63, -103, -67, -14, -33, -115, 42, 126, -76, 102, -46, 36, 73, 113, 18, 7, -34, -101, -60, 83, 2, -35, 54, -35, -80, -108, 18, -68, -61, 32, -69, -38, 64, 30, 8, -125, 118, -20, 58, 69, 122, 100, -114, -24, -77, -118, -41, 63, -120, 46, -125, -66, -30, 75, 114, -126, 38, 73, -18, 67, 63, -100, 55, 65, -4, 98, 22, -103, 121, 79, -51, 82, -2, 126, -3, -30, -41, -32, -33, -120, -72, -40, -71, 91, 93, -20, 39, 92, -69, -51, 90, -29, -71, 9, -88, -108, 51, -45, 35, -61, -57, 81, -13, 124, 83, 77, -46, 3, -91, 92, 66, -44, -93, -103, -128, -32, -125, 17, 23, 60, -108, -121, -38, -21, 45, 95, -128, -124, -62, 19, 80, 53, -18, 124, -42, -54, -1, 5, 49, -56, -81, -54, 7, -100, -54, -48, -38, -27, 77, 118, 22, 35, -80, -84, -22, -128, -124, -31, 26, 22, 112, 103, -74, -107, 107, -30, 48, 99, 16, 54, 59, -93, 59, -127, 51, -47, 52, 56, -33, -99, 65, 100, 19, 69, 82, -9, 24, -82, -20, -26, -88, 17, -26, -4, 0, 38, -117, 101, -72, 80, -30, 105, -41, 107, 48, -102, -5, 67, 25, 55, 42, 85, -114, 76, -37, 47, -66, -11, 57, 90, -113, 124, 43, -108, -65, -127, -95, 60, 86, 103, -4, -93, -124, 21, \
-112, -13, -54, 74, -38, 42, 34, 120, 124, 123, -18, 23, -37, -8, 94, 62, -127, 1, 42, 79, -7, -24, -106, 109, 53, 97, 66, -22, 101, -58, 3, -103, 22, -73, 9, 32, -61, 59, 60, -77, -116, -97, -111, 81, 2, 95, -38, 126, 18, 37, -48, -32, -11, -118, 75, 26, 98, 62, -8, 94, 55, 97, 54, 30, 67, -28, 123, -124, 100, 29, -101, 63, -42, 44, 108, -114, 32, 85, 106, 76, -128, 72, 7, 22, -37, 76, -74, -64, 42, -46, -52, 77, 60, 107, 49, 93, 46, 85, -110, -102, -54, 43, 66, -48, 84, -98, 106, 59, 23, 32, -22, -20, 25, 5, -18, -30, 74, -91, -119, -113, 116, 76, -115, -20, 38, 54, -89, 44, 91, -112, 0, -74, -123, -75, -62, 50, -18, -82, -96, -54, 57, -71, 123, -91, 84, -12, -19, 56, -23, -61, -50, -69, 92, -99, -56, -90, -63, 31, -45, 126, 84, 23, 79, 41, -7, -79, -48, 49, -21, -90, -8, 8, -100, 41, -111, -49, 22, -112, 86, -113, 36, 35, -19, -27, 19, 94, -84, 73, 126, 42, 58, 33, -77, 34, -1, 118, -94, 66, -69, -56, -62, 23, 99, -76, 59, -106, -36, -7, -85, 39, -45, 125, -13, -41, -92, 92, 95, -85, 93, -76, 17, 38, -59, -21, -30, 121, 67, 3, 52, 111, -25, -91, 61, 90, -73, -68, -94, -123, -22, 31, -53, 56, -94, 57, 53, 87, 88, -1, 4, -18, -49, -63, -29, -55, 19, -74, 10, 22, 6, 79, -58, -120, 90, -64, -29, -118, 7, -18, 85, -73, -21, -46, 48, 55, -90, -100, 7, 47, -106, 56, -1, -100, -22, -118, 28, 116, -85, 75, \
-4, 34, -123, 116, -68, 36, -71, -81, 21, 82, -91, -64, -104, -95, 5, 30, -104, 72, -40, -82, -61, 81, 20, -37, 53, -55, 104, -108, -63, 23, 73, 43, -124, -90, -86, 119, -52, -30, -2, 32, 120, 75, -105, 89, 125, 82, -124, -123, 63, -62, -27, 88, -66, -102, 84, -30, -61, -125, -106, 68, -34, -74, -91, 38, 1, -23, -55, -73, 89, -117, 6, 77, -118, -32, 112, 8, -102, 100, -23, 115, -125, 53, 64, 44, 79, 96, 35, 31, -125, 97, 63, 16, -107, 39, -111, -34, 72, -31, 10, -12, -27, -73, -43, 10, 100, 29, 41, 59, -30, 44, -63, -51, -76, 94, 8, 123, -7, 103, -30, 97, 73, -62, -37, -70, -128, 116, 13, 26, -9, 81, -82, -1, -90, 33, -86, 112, 42, -22, -69, -79, 45, -10, -88, -121, 52, -119, 0, 88, -91, -86, -36, -91, 52, -61, 33, -79, 77, -101, -107, 76, 85, -124, 32, 50, -105, 99, -18, -71, -80, -7, 24, -71, -106, -42, -119, -72, -118, 103, -80, -27, -61, 117, -115, -75, 64, -116, -61, -29, 112, -112, 39, 113, -119, -102, -16, 16, 58, 42, -92, -14, -32, -92, 98, 94, -36, -112, 36, -49, 84, 80, 51, -71, -110, 97, 41, 70, 17, -8, -96, 8, 4, -67, -65, 37, 24, 110, 70, -118, 49, 81, 66, 41, -22, 62, -72, 100, -12, 21, 41, 36, -63, 99, 2, 80, 100, -104, 41, 123, 10, 41, 39, -44, -116, 30, 32, 30, 31, 8, 124, 115, 87, -78, 120, -40, 4, -120, 83, -77, 57, -90, 73, -71, 110, -119, -29, 100, -32, 3, 76, 29, -103, -26, -94, 3, 39, -49, -88, -17, \
56, 71, -71, -116, 1, 72, 21, -107, -70, 50, -71, -33, 35, 25, -115, 29, 66, 84, -87, -98, -120, -71, 27, -90, 46, -10, 71, 103, -38, -43, -64, -63, 3, 50, -43, -12, 97, -11, 22, -2, 85, 82, -81, 125, 110, 66, 107, -97, -20, 7, -23, 100, -59, -92, -89, 89, 116, 35, -66, -5, 68, -58, 30, -85, 87, -54, -101, 90, 107, 22, 42, 48, -12, -125, -102, 13, 20, -115, -112, 19, -37, 11, -6, 3, -36, -94, 21, -106, 42, -4, 75, 103, -33, 80, 38, 48, 2, -64, -26, 93, -43, 78, 123, -68, -90, 40, -11, -123, -58, 76, 67, -3, -37, -52, -70, 0, -95, -121, 3, -54, -82, 77, 57, -109, 68, -40, 73, -119, 16, 85, 126, -25, -24, -94, 45, -50, 24, -32, -59, 49, -77, -26, -14, 79, 74, -62, -27, -79, -60, 56, -102, 26, -71, -76, -53, -89, 24, -67, 84, -53, -94, 26, -49, -98, 77, -3, -16, 24, -37, -73, -7, 15, -87, 92, 0, 32, -17, -124, 5, -89, 70, 119, -3, 106, -107, 54, -44, 57, 55, 5, -124, 1, -31, 110, 66, 44, 0, -79, -97, 126, -97, -97, -61, 75, 15, -62, 2, -102, -80, 53, 54, 15, 67, 96, -22, -118, -125, 1, -82, 114, 68, -55, -113, -97, -49, 118, -119, 21, 76, -76, -122, -67, -108, -115, -109, 80, -20, -123, -80, 17, 60, -50, -31, -92, 26, -121, 78, -117, -12, -65, -26, 44, 20, -2, -68, -40, -39, -50, -33, 13, -125, -21, -22, -82, 28, -50, 56, -72, -23, 38, 109, -105, 62, 16, 61, 76, -10, 17, -126, 109, 12, -101, 88, 43, 101, 96, 5, 4, \
-128, 106, 39, -62, -62, 121, -30, 108, -10, -8, -18, -46, -116, -60, 49, 33, 57, -35, 23, 55, -109, -42, 76, -53, -59, -95, -70, 84, -64, 100, -77, -16, 73, 23, -47, -58, -56, -94, -23, -50, 53, 84, 43, 69, 38, -72, 44, -116, 32, 105, 84, 100, 91, -39, -71, -105, -122, 120, 24, 37, -74, -90, 118, 31, -64, 117, 100, -113, 10, -75, 63, -56, -54, -5, -31, -47, 81, 112, 25, -54, 55, 89, 9, 56, -123, 20, 55, 56, -109, -36, 106, -39, -69, 112, 92, 65, 55, -5, 108, 33, -69, 123, 35, 67, -115, -83, 31, -45, -44, -33, -71, -15, 41, -121, 106, 58, -8, -105, -45, 19, 22, 69, -27, -22, 74, 68, 57, -82, 86, -7, -127, 46, 97, -23, -7, -74, -85, -27, -88, 46, 47, -42, -28, -80, 48, 87, 29, -58, 5, 77, 120, -6, 86, 86, 121, -89, -113, 52, -106, 35, 92, -116, 67, 74, 32, 107, 36, -97, -126, -79, -27, -34, -104, 110, 74, -16, -110, -103, -57, -85, -75, -26, -75, -21, -56, 113, -125, 30, -108, 122, -127, -65, -72, 49, -79, 124, 28, 10, -116, -36, -50, -122, -93, -2, 20, -26, -78, -45, -64, 53, 74, 86, -110, 64, 1, 18, -111, 46, -83, -20, 96, -28, 46, -120, -9, -80, -92, 29, 108, 104, 50, -37, 88, -102, -19, -23, -112, 73, -39, -110, 92, 0, -51, -82, -21, -75, -80, 17, -28, 44, 108, 69, 114, 64, -25, -96, -42, 23, 44, -63, 52, -22, 14, -104, 91, -28, -92, -4, 74, 34, 123, -124, -122, -85, 70, 10, 36, -125, 55, 70, 102, -7, -99, 95, 26, 79, 20, -85, \
-124, -2, 80, 6, -33, 28, 79, -31, -36, -98, 51, -83, 118, -43, -49, -46, 32, 44, -104, -109, 14, -72, 123, 119, -91, -93, 8, 72, -47, -8, -72, 25, -82, -92, -128, 34, -78, -19, -83, 22, 111, -61, -52, -102, -60, 9, 41, -30, 24, 8, 48, -111, 52, -67, 14, -52, 120, 62, 95, 17, 72, -99, -123, 118, 27, 111, -24, 53, 60, -94, -84, -15, -40, 114, -19, -23, 122, -121, 93, 13, -85, 44, -58, -31, 121, 19, -23, 68, 50, 28, -20, -123, 126, -47, -35, -52, -111, -69, 26, -78, -35, 111, 33, 60, 75, -4, -7, 79, -16, 107, -86, -55, 89, 32, 67, 56, -38, 36, -61, -90, -114, -38, 67, -70, 15, -23, 99, -45, 104, -122, -127, -79, 49, 104, -75, -124, 121, -106, -115, 61, 10, 54, -78, 74, 5, -73, -112, 83, -114, -1, 30, -81, 2, -128, -97, -120, 39, 53, 90, -42, 43, -57, -75, 20, -20, -31, 6, 126, -109, -80, 115, -59, 108, 66, -33, 79, -82, 6, -38, -61, 111, 3, 86, -89, 53, 94, 19, -90, 59, 54, -72, 44, 122, 44, 9, 36, -22, -57, 94, -6, -93, 48, 99, 59, -36, 120, -15, 106, 61, -11, -128, 14, -118, 0, -76, -76, 42, 12, -20, 119, 96, 21, -104, -89, -67, 22, 106, -8, 53, 5, -124, 98, -50, -7, 73, -96, 38, 122, 83, 27, -27, 37, -78, -15, 87, 111, -5, 126, 9, 27, -111, -38, -117, -76, -78, -37, 24, -82, 60, 95, 30, 121, -112, -38, 73, 23, -74, -38, 97, -31, 2, 9, 17, 16, -20, -107, 15, 92, 10, -31, 113, -45, 55, 23, -76, -31, 7, 63, \
-25, 124, 106, 6, 34, 18, -53, -20, -128, 50, -34, 0, 116, -47, 11, -84, -68, -23, 55, 94, -30, -40, -117, -98, -48, -102, -66, -41, -74, 119, 43, 121, -40, -12, -62, 40, 14, -19, 77, 40, 20, -54, -45, 3, -111, 126, -16, -112, 20, 40, -126, -47, 10, -12, -69, -25, 33, -36, -27, -37, -125, -114, 45, 46, -90, -28, -28, 100, 68, 84, 9, -43, -82, -117, -44, 95, -64, -5, 74, 87, 22, 114, -89, 24, 106, 115, -70, 74, 51, -40, 103, 119, 98, 79, 90, 81, 121, -90, -108, -17, -106, -124, 76, 18, -12, -4, -21, -109, -47, -110, 59, -89, 30, -113, -84, -121, 83, -67, -105, 92, -127, 104, -68, -79, 55, -88, 96, 10, 114, -16, -91, -121, 56, -26, 42, 29, 46, 104, -100, -37, 41, -77, 82, 0, 6, -116, -96, 50, 4, -67, 25, 58, -123, -60, -87, -37, 91, 112, 91, 99, 115, -71, 59, 54, 40, 38, -44, -93, 112, 97, 55, 71, -83, -41, -38, -35, 33, 80, 123, 125, 96, -40, -2, -72, 10, -45, 44, -56, -25, -122, -123, -121, 34, -64, 13, 94, 38, 90, -42, -103, -25, 8, -52, -13, 101, 12, -101, 29, -120, 95, 114, -57, -1, 58, 113, -117, -43, -82, -121, -127, -95, 34, -10, 96, -100, -32, 55, 12, 51, 81, 21, 53, -115, 17, -81, -103, -10, 13, -73, 76, 8, -56, -49, -107, -95, -33, -35, 99, -22, -73, 103, -71, -36, 6, 49, -120, -24, -111, 110, 60, 37, 48, -67, -92, 100, -4, -36, 80, 4, -23, -113, -103, 28, -110, -96, 2, -35, -10, 45, -66, 42, -91, 2, -52, 28, 100, 89, -5, \
-107, 103, 6, 4, 117, 8, -27, 51, -69, -123, 84, 38, -60, 49, 22, -72, 101, -71, -45, 108, 53, -63, 58, 54, 60, -28, 62, 52, -48, -22, 85, -28, 84, -116, 41, -81, -93, 32, 6, -92, 89, 15, -101, 116, 46, -42, 28, 27, 49, -102, -94, 61, 93, 81, 113, -71, 78, -125, 118, 62, 71, 60, -28, 58, -96, -16, -72, -119, -24, 64, -108, 38, 109, 0, -115, 81, 62, -99, -44, 19, -20, -122, -52, -47, 27, -65, 84, 101, 78, 106, 121, 63, -104, 16, -3, 126, 76, 100, -116, -67, -57, 124, -26, 43, -81, 53, -105, -69, 110, 76, -95, -68, -22, 48, -66, 124, 96, -91, 55, 82, 42, 21, 50, 100, 26, -91, -97, -71, -65, 102, 79, -102, 47, -122, 113, -102, -120, 88, 24, 11, 111, 47, 100, 49, 5, -125, 4, 90, 99, -114, 33, -21, 28, -65, 124, -35, 59, -40, 89, 56, -21, -87, -7, 74, 95, -38, 71, 61, -127, 104, -20, -22, -94, 44, -69, -69, -76, 91, -117, -112, 28, 48, 42, -101, 38, -20, -106, 38, 59, -54, -20, -66, 79, -114, 80, -25, 94, -29, 112, 103, -65, -42, -50, 31, 40, 64, -122, 49, 51, -3, -56, 19, 63, 41, 45, 114, 10, 71, -120, -11, -19, -96, 21, 3, -78, 38, -94, 65, 42, 103, 92, -2, -33, 50, 26, 108, -103, -126, 28, -72, 82, 112, 74, 87, 67, 28, -50, 121, -67, -68, 35, 17, -29, 82, 117, -94, 66, 46, 92, 14, 7, -10, 74, 106, -101, -124, -7, -43, 111, -5, -18, -126, -107, -85, -63, -116, -22, 38, -107, -85, 116, -20, -56, -110, 65, 18, -37, -65, \
124, 51, 42, -86, -102, 81, -25, 118, -82, -84, -92, 122, 32, 122, -105, -12, 46, -122, 69, 3, -66, 76, 64, 2, -5, 46, -53, 76, -91, -96, 77, 79, -33, -101, 57, 125, -106, -3, -52, -56, -108, 74, -98, 27, 89, 3, -80, 0, 11, -40, -96, -24, -52, 22, -101, 22, -68, -44, 37, -112, -50, -103, -63, 86, 30, -83, -123, 52, 109, -103, 48, 4, -103, -75, -81, -61, 94, -93, -128, 125, -107, -66, 87, -87, -101, -15, -24, -95, -39, 80, 18, 30, -79, -42, -22, 64, -37, 112, -81, -5, 108, -42, -27, 58, 108, -110, -84, 120, 67, 59, -107, -120, 45, -96, -17, 72, -5, 17, -101, 26, 100, 36, -96, -6, 19, -125, 35, 117, 109, 45, -10, 7, 111, 106, 99, -120, -125, -112, 65, 12, -20, 109, 14, 100, -25, 72, -25, -4, -36, 114, -77, 17, -122, 97, -50, 110, 98, -19, 26, -117, 42, -44, -37, -80, 95, -110, -69, 110, -37, -107, 105, 117, -37, -125, -117, -34, -13, -100, -2, 42, -102, -121, 36, 104, 23, 75, 96, -118, -97, 63, 13, -49, 4, -76, 101, 125, -86, -119, 96, -86, -119, -84, 73, -36, -51, -55, -60, -125, 19, 29, -7, -122, 58, 92, -127, 93, 15, 15, 102, -104, 123, -48, 97, -85, 96, 119, -11, -114, -46, 1, 115, -55, -40, 102, 29, -66, -38, -62, -87, 77, 36, 108, 2, -91, -93, -41, 110, -3, 124, -32, -30, 112, 71, -106, 83, -114, 38, 10, -119, 5, 107, 36, -109, -124, -12, -33, 81, 107, -31, -106, 46, 122, -82, 51, -96, 8, 55, 14, 5, -23, -13, -53, 50, 86, -38, 56, -76, 26, \
-12, 62, 65, -52, -27, -3, -45, -30, -86, 69, -113, -7, -13, 106, 122, 99, 43, 77, 57, 103, 31, -60, -95, -101, -53, -15, -17, -125, -124, 9, -102, 90, -121, 72, -23, -35, -37, 28, -92, 25, 49, -72, -86, 26, -54, -27, -36, 13, 26, -55, 53, 108, -20, -64, 8, 96, 76, 46, 1, -42, -90, 90, -83, -127, 62, -72, -111, 105, 21, -53, 56, 118, -32, -13, -107, 1, 14, -36, 13, 37, -33, 65, 104, 121, -55, 76, -4, 121, -81, 1, -37, -68, 32, -26, 16, 16, -74, 20, -101, -13, 101, 92, 104, -7, -93, -47, 121, -98, -13, -44, 22, 85, -13, -1, 0, 42, 61, -30, -48, -122, -65, 110, -102, -113, -127, 47, 106, 62, -23, 40, -118, 30, 5, -56, -48, 80, -128, -115, -61, 75, 38, -100, -21, 86, -125, 74, 13, -36, -78, -100, -33, -60, 80, -116, -117, 66, 87, 3, -46, -14, -22, 125, 38, 70, 6, -90, 121, 64, 119, -94, 74, 121, -124, 116, -23, 74, -63, 53, 55, -11, 101, -10, -22, 62, 99, -93, -120, 20, -6, -44, 8, -77, -86, 21, 56, 52, -42, 18, 42, -75, 109, -37, 48, 92, -114, 91, 13, -52, -1, 7, -100, -77, 58, -128, 95, 100, -45, 17, 102, 32, -74, -86, 34, -71, -117, 60, 82, -41, 46, 52, 74, 73, -109, -120, 125, -60, 2, 44, -42, -119, -87, 23, -17, -51, 101, -42, -59, 10, 58, 27, -123, -70, 58, -33, -52, 15, 26, -63, -97, -23, -81, 16, -40, -40, -63, 44, 89, 76, -72, -51, 6, 46, 102, 63, 19, 15, 53, -107, 46, 28, -120, 115, 10, -85, -102, -45, 101, 44, \
-46, -64, -67, -26, -91, -121, -82, -49, -124, -49, 74, -51, 48, 7, -106, 12, -17, 65, -56, -76, -9, -119, 77, 26, 62, -117, 8, -100, 15, -33, -120, -69, 88, -91, 51, 62, -50, -94, 45, -87, -71, -8, -4, 46, -69, -113, 77, 12, -42, -98, -36, 115, 2, -30, -79, 99, 101, -65, -9, 0, 106, -30, -100, -120, -10, 54, 9, -17, -90, -96, -112, -90, 61, 6, -88, -100, 105, -83, -34, -64, -30, -27, 8, 50, -11, 8, -71, -8, 76, 27, -122, -117, -107, -124, 19, 8, -8, -92, 83, -94, 104, -4, -101, -1, -97, 51, 100, 97, -36, 38, -124, 40, -18, 67, -5, 38, -26, 33, -30, 114, -93, 123, 75, -21, -4, -89, 119, -108, -79, 0, 52, 62, 76, 81, 120, -74, -62, -85, 98, 111, 29, 45, -9, -76, -84, -1, 100, 95, -76, 116, 123, 34, 17, -119, -56, -122, -121, 83, 68, 2, -84, -13, -89, 52, -85, 20, -9, -67, 13, -12, -44, -55, 20, 104, 37, -90, -114, -31, -91, 106, 1, 95, -4, 105, -50, 101, -74, 17, 117, -65, -51, 57, 39, 60, -16, 78, 58, -44, 29, 94, -47, -61, -89, -38, 57, 44, -118, -46, -105, -65, 8, 122, 120, 123, 21, -114, 47, 83, 89, -71, -75, 84, 39, 86, -97, 114, -91, 70, -88, 109, 4, -58, -57, -45, 21, 43, -14, 30, 79, 123, 106, -125, 76, -23, -90, -111, 48, 56, -48, -81, -11, -97, -24, -60, -43, 100, -34, -17, -54, 62, -60, 57, -2, 10, -126, -88, -12, 126, -127, -79, 22, 93, -35, -55, 14, -81, 35, 4, -82, -89, -89, -6, 36, 91, -124, -105, -4, 12, \
12, 83, -87, -22, 85, 55, 52, 102, 24, -53, 66, -33, -69, 13, 88, -87, -68, -32, -59, 25, 24, 115, 56, -6, 110, 85, -53, 32, 92, -127, -69, 17, -73, 120, -35, -104, 123, 42, 101, -1, 61, 1, 38, -88, 1, -61, 50, -17, 10, 111, 99, 10, -30, -115, 78, 120, 89, 56, -98, 23, -91, -21, 91, 98, -55, 12, 3, 106, -78, 96, -58, -96, -86, 64, 22, -98, -32, 87, -84, 115, -90, -40, 96, 18, 75, 64, 63, 56, -53, 19, 45, -80, 104, 64, 43, 23, 96, -86, 87, 116, 64, 88, 36, 89, -73, -104, -25, -113, 31, -92, -60, -124, -102, -11, 114, -30, -43, -95, 84, -88, -23, -22, -125, 32, -81, -128, 111, -95, 60, 17, -111, -85, 103, -126, 18, 95, -53, 101, 83, -43, 33, -108, 49, 25, -127, -48, 24, -2, 38, -45, 88, 113, -115, 27, -30, 26, 109, 3, 36, 104, 42, -79, 55, -111, 46, 15, 102, -64, 1, -86, -111, 1, 114, -52, -126, 26, -123, 36, 72, -46, -70, -49, 109, 30, -26, 74, -15, 111, -88, 23, 123, -37, -63, -123, 78, 39, -61, 104, -38, -66, -85, -6, 79, -74, 24, -120, -2, 38, 45, -126, 12, -79, 5, 103, -65, 19, -39, 65, 10, 40, -115, 36, -87, 102, 32, -50, 80, 28, 2, 96, 67, -66, 123, -120, -70, 107, 32, 3, -100, 49, 43, -47, 101, -93, 69, 95, 96, -54, 80, 18, -66, -88, -49, -82, 108, 54, 100, -124, -74, 73, 76, -31, 94, 72, -33, 33, 97, -121, 3, -80, -30, 37, 112, -95, -61, -85, 79, -10, 90, -61, -99, -66, 64, 27, 38, 12, -120, 82, \
-115, -104, -111, 2, -9, 14, 71, 31, 78, 82, 6, 19, -98, 97, 118, -70, -72, 121, -7, 111, 102, 101, -102, -124, -47, -32, -32, 53, 86, 115, 126, -2, -51, 0, 105, -36, 110, -60, -72, -118, -120, -115, -103, -37, 104, -116, 90, -1, 75, -34, -13, -41, -118, -2, -80, -12, -109, 79, -90, -55, -65, -25, 73, -11, 13, 116, 1, -14, 17, 78, -108, 39, 94, -53, -43, 117, -57, -26, 44, 103, -105, -116, -6, 93, -7, 21, -66, -107, 35, -64, -12, -100, -4, -98, 8, 7, 73, 36, 124, -96, -123, 92, -6, 124, -96, 2, 4, -12, 31, -119, 98, -21, 29, 126, 100, -96, -54, -30, -76, 47, 3, -94, 84, 64, 116, 14, 98, 46, -86, 123, -45, 22, 29, -116, 66, 107, -95, -45, 11, -82, 18, -4, 54, -83, 108, 53, 62, -68, -56, 15, -94, 96, 94, 6, 112, 38, 86, 86, -48, 121, -75, 98, -21, 88, -122, -119, 68, -8, -89, 95, -3, 52, 69, 118, 13, -91, -19, -96, -66, 104, -125, -116, 60, -67, -11, -53, -48, -37, -101, -99, 29, -22, -15, -95, -108, 83, 32, -81, 114, -90, 50, 100, -49, -70, -44, -76, 48, -64, -47, -46, 95, -123, -97, 47, -3, -93, 57, -80, 60, -28, 96, 15, -38, -18, 76, 54, -18, 37, -11, -106, -69, 71, -41, -82, -1, 31, -40, 102, 76, 72, 2, -119, 99, 95, 81, -8, -96, 57, -52, -12, 67, -10, -126, -115, 14, 83, -79, 83, 74, 95, -93, 121, 117, 33, -109, 9, 59, -21, -65, 25, -67, -117, -79, -114, 76, 49, 6, -52, -36, 59, -104, -107, -66, 47, -50, 4, -16, 13, \
33, 107, 109, 31, 88, -47, 25, -96, 43, -121, 13, 75, -118, -68, -36, -48, 107, 115, -107, 11, 60, -116, 25, -31, 22, -27, -64, 106, 0, 61, 13, -103, 71, 2, -107, -18, -120, -114, -116, -23, 85, 66, -68, 9, -16, -127, 81, -24, 9, -103, -72, -63, -47, -48, 48, 53, -3, -29, -78, 59, 71, 74, 39, 85, 126, 63, -121, 126, -36, 105, 73, 82, 36, 74, -48, 95, 121, 75, -123, -26, -58, -50, 55, 97, -105, -20, -71, -73, -71, 50, 85, 35, 82, -81, -2, -24, -5, -104, -87, -42, 98, 0, 27, 90, 100, -39, 47, -72, -8, -3, 119, 42, -27, 87, -84, -14, -91, 28, 61, -44, -45, -117, -29, 114, 82, -114, -39, -125, -113, -62, -82, 1, -58, 1, 40, -92, -72, -116, -51, -123, -7, -101, 22, 54, -1, -111, -83, 50, -72, 60, 64, -7, -25, -17, -92, 1, -55, 106, -21, 91, 104, -54, 86, 37, -112, -55, 41, -86, -37, -71, -106, -11, 88, -122, -79, 9, 114, -100, 88, -36, 8, -115, 115, 49, 20, 11, -46, -41, 25, -82, -116, 21, 109, -40, -109, -22, 107, -94, 110, 54, 56, -110, -84, -102, -81, 11, -10, 30, -125, -38, -12, 13, -118, -43, -12, 54, 105, -74, -61, 27, 42, -22, 6, 83, -123, -126, 84, 97, -123, -85, 7, -45, -22, -31, -30, 80, 52, 72, 73, 101, -96, -2, -39, -124, 98, -125, -103, -88, -125, 54, -13, 16, -77, -124, -33, -26, -67, -112, -23, 125, -109, -98, 15, -127, -73, 102, -100, -50, 72, 95, 75, -119, -96, 80, 95, 113, 25, 86, 91, -33, -43, -118, -124, -44, 21, 10, 85, -122, \
44, -99, -47, 108, -33, 90, -97, -116, 14, 63, 113, 28, -91, 76, -32, -81, 98, 11, 53, 108, 99, 89, 49, 126, -34, -86, 60, 11, -22, -117, 115, 95, 93, -5, -70, -21, 67, 14, 79, -82, 70, 18, 59, 30, -87, 84, -80, -8, -50, -94, 64, -30, -83, 98, 20, -127, -19, 5, -112, -124, -110, -110, -67, 78, 110, -62, -23, 24, -61, 102, -82, 61, 46, -47, -72, -10, 19, 104, -83, -32, 49, 122, -50, -4, 0, -73, 77, 44, 20, 101, 75, -93, -92, -56, -30, 51, 78, 70, -77, -72, -66, -96, 54, 89, 81, -83, -12, -110, -41, -127, 91, 112, 51, -102, 40, 11, -80, 39, -113, -43, 29, -47, -41, 26, 81, -115, -102, 66, 85, 103, -88, -62, -92, 107, -87, -124, 18, -49, -89, 56, 15, -82, 35, 112, 18, -20, -100, -104, 107, -57, -90, 83, -72, 86, -21, -24, 34, 12, 27, -92, 15, -35, 18, 48, -3, 64, -11, -109, -41, -16, -3, 9, -96, 2, -20, -29, 75, 122, -65, -124, 97, 96, -125, -75, 126, 34, 111, 87, 69, 41, -40, -83, -17, 107, -46, 62, -111, -98, 2, 13, 126, 29, -76, -57, 105, 60, -11, -60, 121, 113, 0, 110, -14, 1, -60, 113, 107, -128, -101, -42, -29, 2, 81, -10, 17, -62, 109, 68, -54, 95, -54, -36, -125, 107, 93, 107, -70, 28, 49, -68, -33, 82, 66, 29, -81, -38, 108, 86, -34, 34, 95, -45, 22, -63, 22, -72, -73, -118, -22, 112, -89, 83, -67, 31, 29, -45, -52, -93, -72, 10, -100, 108, 89, 43, -117, 71, -120, -49, -25, -81, 28, 0, -43, 86, -115, -3, -1, -107, \
7, 126, 40, -9, 6, -76, 104, -88, 6, 1, -111, -5, 27, 14, 17, 15, 37, 100, 96, -122, 5, 21, -101, -65, -89, 40, -96, 94, -103, 20, 69, 2, -80, -46, -21, -70, 24, 70, -73, -79, -72, 49, 47, -124, -72, -86, -59, -35, -108, 39, -42, 4, -50, -39, 108, 38, 29, -24, -62, 17, 93, -41, -100, -44, 89, -79, 24, 75, -86, -48, -34, -122, -76, -82, 45, 40, 32, 71, 3, 56, 28, -77, 91, 17, -100, 1, 57, 18, -115, 41, -110, -45, -126, -38, -106, -16, 77, -125, 30, -47, -33, 22, -17, 11, -99, 74, 122, -63, 92, 11, -13, 11, 106, 73, 13, 96, 65, -72, 77, -25, 116, -61, -64, 65, 42, 61, -57, 69, 89, 28, -69, -30, -87, 116, 108, -77, -32, -104, -107, -56, -97, -1, 33, -126, -44, -22, 50, -65, 96, 87, 58, -90, 93, -90, 51, -29, 7, 1, -121, -24, 76, 64, 37, -50, 45, -47, -13, 107, -35, 81, 90, -10, -55, 39, -15, -15, -15, -82, 123, -7, -42, -102, 3, -62, -106, 33, -18, -82, 34, 58, -98, 61, -70, 114, -87, 46, -8, 87, -64, -25, 6, -52, 106, -68, -107, -95, -47, 90, 90, -24, 74, 119, -102, 108, 97, 85, -74, -90, -93, -11, 63, 86, -103, -65, 119, -15, -50, -6, -67, 41, -28, -84, 41, 14, -43, 29, 108, -55, 0, -78, -26, 44, 67, -64, -57, 117, 110, -110, 47, 66, 23, -13, 31, 52, -104, 39, -75, 0, -106, 35, -69, -43, 112, -111, -56, -126, 117, -38, 53, -85, 10, -12, -112, 34, 24, 110, 67, 72, -21, 25, -63, -56, -39, 64, -66, -125, -68, 26, \
34, -48, 110, 29, -126, 94, -2, 5, 114, -19, -59, 119, 71, 15, -54, -103, 29, -25, -107, -125, -126, 55, -47, 30, 51, 47, -90, 89, 65, 23, 0, 78, 48, 52, 52, 77, -70, 101, 80, 14, -91, -85, -64, 59, 97, 109, 93, 54, -88, -40, 122, 43, -37, 96, 47, -85, 90, -44, -3, -103, -46, -19, -20, -10, -71, -54, 99, -79, -70, -112, -119, -88, 108, 2, -51, 80, 24, -128, 41, -96, 64, -120, 13, -51, 60, 66, -91, -35, -124, 59, -125, -80, 88, 89, -23, 58, -44, -21, 40, 12, 44, -12, -30, -80, -112, -8, -98, -92, 121, -92, 121, 74, -110, -127, -105, 101, -110, -111, 95, -80, -74, 17, 44, -55, -65, 7, 46, 51, -88, -122, 17, -84, 41, 69, -86, 59, 31, 96, 78, -22, 41, 40, 48, -96, -42, -82, -65, 25, -79, 123, -105, -11, -74, -37, -24, -16, -40, -46, -77, -57, -75, -50, -81, 70, 104, 87, -77, 126, -117, 122, -11, 2, -109, 121, 30, -77, 59, 41, 3, 47, 87, 32, 62, 0, -46, 22, 56, 53, 13, -72, 105, 71, -42, 32, 44, 102, 49, -46, 90, -94, -58, -114, 53, -55, -39, -82, 11, 76, 24, -65, -61, -72, 121, -102, 120, 91, 111, -89, -18, 36, 106, 77, 87, 29, 122, 45, -57, 24, 2, -92, 48, -110, -115, 85, 0, 23, -51, -33, -20, 89, 60, -56, -80, -105, 119, -123, 25, 17, -30, -104, 119, 31, -51, 42, -96, -46, -112, -94, -109, -104, 74, -27, -25, -63, -114, -112, 47, 23, -43, -45, 23, -85, 66, 55, -11, -127, -6, -100, -34, -106, 126, 49, 52, 51, 115, -62, 96, -30, \
-10, -77, 88, 123, 86, 54, 124, -61, -113, 72, -52, -105, -28, 67, 124, 37, 81, -80, 31, -83, -30, 16, -117, -47, -103, 24, 107, -35, -115, 4, -122, -114, 34, 107, -89, -14, -17, -8, -68, -123, -105, 64, -54, -18, -64, -3, 120, 98, 50, -41, -57, 11, 6, 66, -69, 3, 50, 37, -117, 9, -101, -79, -122, -92, -42, 22, 117, -49, 38, -54, -19, -38, -6, 103, 57, -59, -74, -11, 58, -57, 117, -93, 110, -50, 85, -21, -2, 100, -61, 116, 105, 73, -35, 79, -38, -122, -33, 34, -12, -109, -87, 45, 108, 58, -96, -68, -45, 112, -37, -83, 17, -29, 88, 99, -52, 7, 44, -108, -7, 90, 119, 49, 67, -38, 116, -60, 112, -128, -82, 1, 52, -46, -27, 106, 82, -46, -123, 35, -21, 63, -90, -123, 37, -79, -73, -92, -118, 114, 35, -40, 73, -66, -45, -70, -96, 99, -14, 72, 12, -65, -33, -121, -63, 98, -60, -16, -23, 68, 3, -68, 7, 3, -42, -113, -101, -17, 86, -72, 48, 103, -105, -120, -48, 57, 20, -110, 107, -44, -54, -7, 40, 37, -29, -37, -116, 5, 99, 52, -12, 70, 17, -33, 67, 85, 42, -70, -38, 51, 51, 33, -74, -107, -13, -16, 55, -100, 58, 118, -101, 37, -102, -10, 9, 38, -89, 9, -115, 62, 92, 49, 14, 71, -99, 73, 109, 18, 104, 90, 36, 108, 94, 87, -123, 17, -81, 114, 39, -66, 92, 45, 44, 30, 94, 62, 72, -8, -67, 27, 72, -58, 32, -66, -22, -104, -112, 19, 102, -7, -8, 31, 90, -32, 4, 14, -124, -122, 104, 61, -21, 5, 94, 61, -2, -1, -5, 53, -97, 17, \
-19, 126, -100, -107, 20, -32, 92, -123, 70, -69, 56, 98, -6, 42, 74, -112, -21, -67, 110, 96, 90, 65, 117, 27, 95, 88, -121, 15, -121, 114, -46, -15, 6, 100, -39, 73, 105, 62, -57, 63, 122, 100, -44, -124, 22, -98, 110, 109, 11, 58, 52, -78, -49, -85, -48, -119, 49, 124, -66, 45, 46, 8, 23, -121, -57, -126, -83, -103, 113, -33, 98, 13, 121, -63, 0, 105, 43, 47, 17, -71, 90, 74, -128, 79, 13, 105, 84, 65, 120, 68, -127, -40, -33, -75, 93, -31, 75, 71, 102, -98, -94, 16, -110, 48, 114, 31, -16, -14, -63, -107, 43, 65, -10, -55, 8, -47, 20, -61, 49, 45, -26, -106, -47, 108, 46, 54, 106, 46, -59, 53, 112, 3, 19, -95, 6, -39, 10, 99, 61, 112, 71, 16, 79, -77, -119, -109, 79, 121, 16, 50, -81, -60, 88, -127, 10, 43, -98, -103, 15, 108, -63, 20, -49, 30, -39, 15, 95, -112, -126, 1, 25, -49, -64, -95, 51, 101, -78, 39, 107, 28, -5, -92, 118, 44, 71, -3, 72, -91, 33, -9, 64, 119, 4, -33, -21, -8, 31, -120, -82, -128, -61, -20, 1, 73, 94, 70, 74, 45, -63, -121, 39, 96, 103, -3, 111, 54, 37, 13, 70, -58, 6, 9, -95, 80, -4, 97, 100, 21, 126, -84, 115, -94, 98, -49, -77, 51, 108, -69, 43, -32, -21, 123, -28, 103, -44, 88, -36, 9, 64, -106, 39, 95, 61, 61, -67, -78, -38, 30, 7, 113, -124, -90, -97, 107, -84, -107, 35, 1, 87, 75, 35, -70, -124, -105, -29, -55, -70, -120, -85, 83, -19, 24, 81, 66, -92, 14, -70, -3, \
-103, 82, 95, 18, 60, -48, -108, 49, -66, -63, 35, -127, -120, 95, 10, 118, -55, 98, 74, 96, -52, 33, 92, 15, 95, -20, -42, 75, -4, 25, -61, 110, 13, -42, -41, -79, 80, -58, 23, 107, -1, 93, -81, -109, 114, 2, -59, 78, 63, 33, 113, -81, -42, 68, -13, 61, -30, 21, 56, 110, -23, -109, 71, -95, -127, -102, -122, -74, -36, -10, -108, -6, 74, -65, -106, 79, -105, 48, 18, 116, -126, 18, -42, -28, 67, 52, 46, 59, 104, 111, -110, -58, -29, -35, 91, 60, -1, -127, -112, -3, 21, -63, 37, 19, 34, 57, -21, 109, 0, 53, 20, -115, -53, 13, -49, 86, -101, -36, -15, -45, -2, 10, -88, -59, -86, 34, 122, 1, -61, -95, -42, 67, 58, 47, -1, 114, 125, -3, -37, -88, -116, -20, -23, 14, -98, -58, -124, 65, -88, 25, 19, 118, -32, 46, -45, 112, 45, -98, -58, -11, -126, 50, 53, -100, 14, 73, 46, 72, -55, 64, 57, -73, -3, 117, -99, 46, -19, 83, -31, -126, -83, 76, -16, 64, -61, -82, 20, -125, 122, -95, -126, -98, -66, 42, -51, -105, 86, -87, -81, 12, 52, -88, -50, -69, -10, 52, -57, 71, 43, -75, -78, 22, -63, -122, -82, 52, -127, -15, 78, 77, -22, -60, -100, 30, -84, 109, -108, 36, 58, 18, 114, -74, -69, 100, -16, -94, 19, 122, -107, -39, -78, -85, -105, 51, 60, 120, -64, -104, 79, -123, 18, -46, 80, 16, -63, 107, -67, 82, -110, -44, -104, -32, -77, 42, -107, 96, -95, -11, -45, -59, 19, -28, -117, 81, 87, -80, -82, -22, 88, 84, 95, -28, -2, 6, 107, 40, -63, 21, \
125, -2, 91, 51, 28, -68, 93, 75, -77, -76, -45, 61, 11, -73, 23, -80, -66, -45, -8, -41, -89, 41, 33, 91, -8, -52, 73, -119, -81, 97, 62, 124, -115, -7, -127, -101, 74, -115, -19, -87, -81, -66, -86, 30, 48, 41, 78, 15, 49, 26, 72, 110, -20, -108, 121, 52, -124, 107, 121, -72, -6, 48, 14, 33, -61, -91, 118, 26, -88, -50, -53, -19, -58, 79, -88, -41, -1, -55, 61, -92, 71, -123, -41, 69, 55, 50, -123, 59, -59, 37, -126, -118, -94, -36, 10, 26, 91, -120, -97, 8, 3, -84, -67, -63, -113, 116, 74, 69, -67, -25, 72, -59, 72, -18, 21, -49, -82, 72, -120, 65, -18, -41, -58, 87, 22, 71, -111, -101, 51, -117, -33, -58, -45, 89, -122, -63, -67, 47, -108, -16, 42, -105, 114, -9, 4, 117, 60, -35, -85, -40, -9, -28, 3, 88, -65, 84, -67, -46, -110, 73, -126, -54, -59, 126, -50, 14, -47, 16, -20, -6, 50, -40, 81, -103, 91, 82, 71, -1, 97, 25, 89, 95, -71, -36, -9, 27, -119, -65, -125, -87, -82, 5, 8, -100, 61, 9, -92, -110, -127, -48, 106, 121, 115, -29, 92, -14, -34, 44, 32, -2, 59, -47, -106, -114, -31, 108, -40, -54, 16, 91, 66, -21, 11, -82, -125, 73, -108, -92, 3, 38, -103, -127, -35, -116, -108, -90, -89, -102, 15, 12, 45, -39, 79, 98, -116, 6, -119, 102, 4, 84, -121, 59, -24, -44, 117, -70, -52, -68, -18, 74, -31, -38, 119, -71, -10, -120, -18, -92, 58, 77, 51, 90, -48, 90, 15, 76, 19, -52, 24, 103, 16, 71, -86, 28, 104, 31, 106, -121, \
116, -117, -128, -121, -112, 1, -57, 115, -107, -26, 78, 112, 106, 3, 99, 37, -124, 0, -123, 35, -122, -45, 64, 76, 99, -49, -41, -101, 70, -26, 4, -17, -119, 88, -111, -99, -26, -46, 52, -115, -120, -32, 89, -99, 75, -64, 13, -31, 121, -14, -99, -55, -83, 103, 94, 49, 117, -113, 70, -23, -51, 105, -81, 110, -123, -106, -81, 104, 16, 58, -28, 109, 109, 122, -93, 32, 84, 15, 20, 55, -26, 58, 68, 101, -35, -74, 20, 64, 46, -88, -50, -58, 6, -125, -1, 109, -26, -119, -47, 37, 111, -118, 44, -9, -8, -83, -56, 120, -20, 117, -123, -44, -68, -57, -123, 8, 54, 85, 14, 14, 13, 95, 82, -47, -124, 110, 109, -79, 6, -76, -70, -117, 83, -47, -68, -94, 96, -99, 126, -22, 114, -117, 30, 71, 14, -56, -19, -34, -64, 33, 22, -77, 8, -107, 67, -100, 60, -121, 85, -24, 67, -110, 113, 103, -78, 94, -111, 71, 42, -96, -89, -117, 11, 7, 106, 120, -128, -36, 58, -88, 27, -86, 32, 82, -76, -104, -8, -104, 70, 110, 38, -112, 57, 97, -106, 36, -50, -126, 11, 99, 4, 32, -24, 78, -3, 31, -89, 68, 34, -8, 36, 54, -32, 77, 87, -88, -57, 82, -34, 16, -12, -9, -28, -87, 114, -59, 93, 94, 83, 25, 20, 63, 27, 126, 126, 48, -41, -99, 105, -113, 61, -122, -25, 36, -7, 25, 31, -15, -32, 84, 123, 113, -21, -103, 112, -17, -12, 116, 60, -67, 21, -21, -22, 36, -41, 126, 40, -78, 77, -63, 66, -74, -116, -58, -31, -85, 56, -108, 60, 59, 100, -101, -92, 114, 39, -117, -65, 116, \
89, -33, 83, -86, -100, 78, 103, 89, 93, 82, -92, 94, 76, 113, -60, 67, -105, -36, 22, -36, -32, 46, -122, 45, -5, -41, -117, -41, 110, 98, -86, -97, -50, 105, -9, -39, -92, 101, 92, -79, 119, 36, -75, 90, 105, -44, -32, 47, -39, 88, 13, -44, 86, 109, -89, -52, 96, -103, -118, 12, 68, 99, 64, -32, -70, -17, -54, 14, 73, -1, -88, -96, -116, -7, 53, -102, -13, 21, -82, -24, 79, -102, -95, 123, 40, 35, 2, 41, -51, 54, 97, 126, 23, -121, 73, 67, 18, 68, -72, 89, -6, 45, 124, 51, -108, 84, 20, -122, -98, -38, -36, 51, 117, -58, 102, -67, -50, -105, -126, -90, 58, -75, -61, 43, 82, -90, 71, 61, 21, -89, -58, -24, 54, 90, 121, 123, -68, -116, -72, -7, 31, -91, -19, -40, -26, 92, 38, 106, 69, 52, -93, -71, -3, 52, 68, -68, 43, -10, 90, -24, 88, -37, 28, 83, 45, 65, 32, 42, -31, 69, 36, -41, 40, -40, 42, -5, -42, 42, -80, -8, -91, 118, -18, -35, -93, -111, 103, 90, -25, -14, -86, 59, -126, -122, 24, 65, -96, 83, 41, 57, -31, -95, -95, 0, -114, 8, 18, -5, -77, -11, 35, -4, -41, -36, 99, 109, 50, -82, -100, 72, 62, 67, 39, 27, 47, -35, -87, -36, 93, -57, -95, -40, -28, 35, -4, 63, 105, -4, -75, -13, 89, -66, -90, -107, 0, -111, -2, -83, -111, 101, 26, -113, -30, -26, 99, 75, 28, 103, 96, -78, -99, 16, 26, 15, -27, 71, -42, 0, -61, -18, 33, -63, 88, -98, -88, 101, -63, -90, -94, -66, 5, -17, -13, -87, 61, 65, 88, 17, \
-22, 9, -39, -109, -62, -49, 0, 36, -80, 107, -73, 116, 88, -62, -38, 41, -33, -9, -15, 5, -67, -104, -45, 59, 47, 45, 104, -84, 27, 108, -50, -93, 29, -95, 90, -5, -53, -1, -28, -96, -19, -107, -39, -46, -30, 23, -115, 8, 19, -39, 14, -27, -126, -63, 21, -87, -116, -70, 8, 32, 74, 108, 59, -114, 78, 59, 113, 86, -115, -42, -111, -111, -53, 46, -30, 43, -54, 29, 112, -10, -36, -68, 13, 35, 59, -56, -100, 118, -18, -85, 8, -89, 117, 17, -77, 86, -13, -89, -34, 115, -27, 124, -63, 64, -34, 72, -126, 70, 119, -34, -98, -93, -89, -75, 105, 8, -58, -54, -56, -59, 27, -73, -107, -29, -71, -96, 121, -128, -104, 67, 94, 47, -40, -81, 111, 107, 44, 84, -49, -41, -95, -21, -9, -121, -38, -71, -110, -92, 34, -18, 69, 72, 61, 90, 64, -106, -34, -46, -73, -56, -124, 56, 26, -83, 13, 35, -123, -91, -1, 63, -84, 111, -2, -19, 121, -58, 88, -72, -87, 70, 83, 122, -88, 20, 11, -68, -14, -76, 117, -86, -7, 61, -40, -73, 34, 105, 92, 112, 105, -70, 33, 25, -112, -121, 85, 50, 102, -40, -49, -87, 23, -24, -57, 71, -17, 76, 24, -122, -15, 77, 92, 111, 13, 64, -115, 119, 48, -103, -55, 45, -40, 17, -31, 109, 38, 80, 116, 52, -29, 113, 7, 28, 91, -57, -127, -114, -29, 77, -30, 120, -82, -5, -114, -31, 98, -6, -35, -19, -23, -7, 29, 36, 76, -39, -31, 101, 123, 6, 12, -27, -35, 106, -104, 18, -53, -49, -109, -6, -12, 101, -23, 122, -40, -67, 76, -111, 67, -94, \
7, -41, 1, 3, 60, 23, -65, -61, -19, -84, -45, 40, -25, 125, 32, -28, 24, -99, 53, -82, 117, 109, -106, 63, 90, -75, -111, 107, -91, -86, 117, 119, -12, -13, 53, 122, -30, 112, 120, -23, 62, 14, -23, 125, 61, -93, 47, 91, 15, 85, 110, 11, -62, 39, -35, -49, 60, -128, -40, -120, -94, 20, 92, -49, -34, -7, 115, 2, -114, -49, 56, 80, 57, -29, -91, -39, -128, -59, 59, -98, 101, -13, -49, -37, -119, 71, 87, -33, -88, 69, 107, -3, -52, 74, 105, 24, -19, -119, 11, 86, 6, -60, -51, -107, 126, -7, 87, -120, 70, -86, 13, -90, 25, -98, 47, -59, -23, -46, -63, 75, -118, 42, 112, 19, -90, 53, -7, -127, -94, 96, -97, -59, 105, -58, 103, -82, 96, -120, -82, -82, -80, -77, 122, 65, 29, 82, 53, 18, 26, 4, -109, -11, -26, 9, -98, 109, 1, -4, -110, -76, -63, 41, -111, 3, -40, -60, -69, -76, -117, -84, 120, -88, -53, -103, -73, 56, 10, -57, -42, -1, 73, 79, -87, -81, 8, 84, -61, 23, 18, -96, 124, -46, -103, -85, 95, -124, -39, 94, -25, 99, -80, 100, 43, 37, -105, -58, 71, -85, 119, -103, 18, -112, 51, 121, -91, -80, 114, 71, -85, 10, -14, 3, 11, -9, -12, 54, -120, -102, 20, -35, 63, 40, -57, -21, 53, -83, -65, 16, -25, -93, -127, 87, 114, -4, -36, 4, -46, 39, 61, 13, 30, 38, 98, -117, 37, -54, -79, 12, -90, 8, 14, -31, 64, 107, 62, 53, 112, -125, 125, 68, -108, 126, -5, 97, 30, -89, 99, -51, 62, -55, 99, 82, 122, 117, -4, -93, -50, -103, \
-39, 124, -25, 69, -12, -125, 115, -107, 85, 87, -19, -50, 116, 16, 89, -55, -114, 90, 96, -1, 97, 108, 1, 48, 77, -98, -113, 41, -52, -16, -63, 82, -71, -107, -53, 29, -75, 25, 6, -51, -66, 43, 42, 121, -5, 98, 103, -68, 97, 31, -95, 105, -15, -30, -51, 111, -40, 126, 124, 26, 78, 26, -121, -12, -30, 61, 53, 10, -58, 81, 101, -47, 64, 113, 101, 75, -102, 40, 88, -105, 25, 68, -10, 124, -19, 13, 25, -117, -83, 54, -96, 65, -40, -120, -43, 83, -16, 2, 25, -92, -23, -47, -6, -100, 71, -69, 94, 97, 36, 42, -112, -119, 4, -38, 67, -46, -97, 59, -79, 79, 90, -24, 82, -40, -96, -47, 34, -34, 100, -109, 51, -43, 8, 15, -91, 96, 90, 56, 32, -36, 33, 85, -38, -31, -80, 63, 12, 82, -28, 86, 43, 93, -84, 38, 124, 6, 36, -84, -114, 66, -60, 26, -2, 82, 113, 30, 120, -46, -125, -78, -13, -85, -127, 21, 117, -119, -74, 32, -60, 18, 57, -77, 87, -124, 116, -60, -4, 10, 95, -30, -51, 38, 99, 81, -126, -13, 42, 97, -51, -77, -14, 112, -109, 72, -45, 35, 93, -15, 11, -86, -114, 124, 109, -30, -13, 60, -78, -123, -51, -10, 126, 65, 77, 104, 44, -60, 9, 92, -5, -75, -107, 93, -105, 28, -73, -47, 39, 8, 10, -113, 123, -54, 27, 43, -44, -32, 100, 82, 31, -14, -90, 114, -81, -124, -42, -22, -6, -110, 97, -26, -111, -62, 70, -93, -115, 3, 42, 20, -102, -9, 87, 93, 121, -72, -121, -100, 35, 76, 77, -65, -13, 77, -128, 32, 42, -88, 125, 65, \
-60, 60, 88, -82, -86, -80, -39, 0, 25, -12, -110, -82, 64, 9, -8, 122, 39, 62, 72, -116, -31, 75, -33, 45, 18, -100, 6, -37, 30, -38, 117, 126, 5, -106, -53, 14, 7, -67, 46, 41, 32, -79, 106, 34, -87, 25, -94, -43, -81, 32, 55, 13, 73, 103, -77, 48, 61, -46, -109, 84, -9, 64, 10, -73, 114, -12, -31, -111, -65, 19, 113, 72, 27, -19, 66, 65, -39, 102, 82, -47, 37, -65, 107, -83, 104, -100, -90, 63, -110, 72, -109, 105, -45, -47, 102, 108, 54, -53, -64, -82, 123, 76, 27, 55, 54, -83, 97, 107, -3, 64, 62, -13, 26, -81, -64, -86, 92, -73, -94, -34, -110, 10, -60, 93, 95, -91, -71, 107, 8, -71, 59, -69, 5, 77, -28, -81, -89, -103, -127, -109, 51, -53, 55, 42, 6, -89, 12, -86, -18, 117, -14, 47, -39, -51, -40, -25, -113, 56, 47, 113, -12, 66, 20, -99, -40, -28, 103, 60, -60, -20, 108, -78, 90, -29, -30, 36, 70, 66, -121, 126, 59, -47, -25, -125, -26, -80, -77, -37, 47, -76, 97, 59, -119, 77, -1, 35, 80, 78, 29, -14, -35, -43, 122, 98, 95, -1, 106, 2, -61, 67, -6, -124, 113, 10, 50, 81, 79, 3, -11, 93, 89, -59, 24, 16, 42, 68, -17, 59, -28, 21, -21, -128, 123, -28, -24, -40, -33, 15, 87, 37, -64, 35, -117, -55, 46, -112, 31, -20, -101, 50, 121, 33, 106, -112, 104, 17, -7, 6, -56, -87, 28, 113, 26, -77, -62, 88, -103, 53, 74, -115, 84, 69, -22, 7, -81, 98, 58, -42, 56, 72, 90, 107, 118, -59, -23, 14, 4, 23, \
0, -17, -125, -51, -32, 23, -76, -49, -112, 78, 67, 57, 82, 93, -100, 124, 121, -67, 36, 86, -41, 21, 104, 125, 86, -93, 72, 13, -126, -56, -72, 101, -69, 30, 118, 19, 88, -86, 19, 56, -92, -21, 68, -115, -102, 76, 17, 54, 18, 55, 23, -38, 5, 42, -14, 57, 106, 62, -62, -96, -4, 45, -84, -27, 78, 19, -126, -55, 72, -78, 22, 0, 112, 38, 125, 54, 108, -119, -3, 62, 108, 86, -79, 55, -102, -76, -119, -44, 59, 126, 77, 1, -3, 42, -31, 84, -94, 91, 94, -59, 60, 87, 122, 97, 10, -128, -41, -1, 116, 89, -79, 108, -81, -111, 84, 108, 76, 78, 95, -56, -4, -72, -51, -13, -16, 107, -9, -68, 26, 114, -50, 24, -126, 96, -61, 0, -128, 86, -110, 89, -2, -24, -108, -86, -119, 58, -76, -15, 58, -121, 80, -11, 76, 108, -112, 88, 42, -47, 100, -18, 61, 4, 75, 52, -8, 28, 55, -93, -75, -9, -42, -83, 126, 9, 15, 62, -48, -19, 19, 27, -106, 7, -91, 17, -103, -102, 43, -76, 60, -106, 49, -96, -56, 71, 24, -73, 52, 48, 28, -47, 12, -1, 85, 88, 122, -87, 78, 64, -120, 66, 79, 68, 72, -30, 97, -71, -93, 32, 18, 68, -75, 95, -31, 28, -57, -26, 23, -37, -95, 101, -69, -34, -13, 11, -30, -77, -84, 65, 29, 28, -40, 85, 38, -83, 88, 67, -112, -77, -50, -1, 15, 4, 99, 18, 45, 67, 116, 12, 100, 52, 13, 51, -55, 48, -17, -16, 118, 123, -5, -89, -33, 88, 110, -66, -128, -91, 41, 3, -118, -72, -115, -51, 80, 104, -17, 56, -106, -126, \
-72, -16, -98, 26, 67, -83, -128, -96, 81, -60, -48, 7, -72, 32, -71, 88, 9, -42, 46, -11, -6, 58, 109, -104, -62, 23, 93, 122, 66, 11, -16, 33, 9, 110, 10, 104, 109, -41, -22, -36, -106, -40, 50, -54, 52, -79, 71, 53, 32, 24, -49, 123, 25, 80, 121, 5, -48, 92, -104, -30, 8, -20, -30, -83, -53, 108, 14, 91, -15, 3, 46, -65, -113, 65, 99, 66, -91, 11, 48, -115, -25, -55, 110, 106, -13, 109, 111, 114, 59, 23, 82, -83, -7, -14, -41, -83, 5, -127, -63, -111, 85, 38, 110, 61, -21, -97, -79, -44, 60, 45, -64, -55, -9, -87, 71, -14, 1, 30, 88, -119, 108, 77, -93, 79, -124, -122, 85, 18, -75, -10, 46, -20, 59, -94, -15, 1, -3, 118, 102, -95, -36, 21, 65, -28, -78, 31, -73, -87, 121, -118, 33, -43, -44, -84, 4, -62, -78, 48, -5, -121, 92, 11, 125, 28, 65, -57, 28, 3, 31, -78, -7, 14, -98, -93, -98, 45, 70, -67, 84, -70, 2, -122, -14, -80, -46, 33, -32, -76, -77, 83, 3, -83, 42, -8, -14, -10, -19, 12, -127, -89, 44, 48, -53, 51, -24, 92, 0, -86, -33, 18, -81, 67, 60, -69, -55, 70, -91, 34, -98, 52, -79, 78, -88, 25, 56, 26, 75, -115, -27, -72, 108, 84, -92, -121, 107, 1, 102, -73, -26, -91, 90, 48, -124, 111, 63, 75, -66, -55, -37, -43, -46, 26, 74, -75, -127, -67, -52, -88, -66, 65, 70, 35, 65, 17, 49, -7, -86, 7, 108, 93, 34, 6, -60, -27, 91, 49, -51, -68, -79, 69, -25, 72, -125, -30, -63, 80, -11, 57, \
-103, 52, 72, 8, 14, 41, -68, 42, -2, -70, 32, 112, 84, -51, -27, 87, 76, 30, 42, 28, -31, 0, -12, 66, -117, 88, -114, -123, -39, -19, 57, 71, -101, -13, -73, 124, -93, -22, -7, 80, -90, -83, -67, -65, -106, 98, 123, -2, -78, 89, -61, 107, -80, 44, 42, -12, 102, -16, 68, -82, 62, -91, -120, 39, -29, 70, -5, -70, -120, 53, -42, 91, 86, -32, -110, 99, 34, 120, -21, 51, -102, 85, 99, 34, -33, -12, -104, 39, -33, 74, 41, -42, -34, -12, -2, 110, 36, 27, -6, -123, -42, 6, 49, -54, 20, -54, 17, -107, 91, 100, -88, -4, -127, 120, 45, -13, -97, -87, -9, -60, 77, -26, -75, 66, 101, 69, 66, -28, 62, -77, -53, 30, -36, -123, -88, -20, 108, 55, -64, -6, 72, -74, 116, 31, 77, -127, -9, 27, -108, 111, -18, 61, 107, -39, -23, 49, 1, -110, 83, -111, 37, -44, -57, -72, 124, -39, -18, 93, -72, -123, -22, -65, 40, -14, -97, -119, 23, 35, 14, -66, -61, 91, 81, 36, -81, -101, -51, -74, -13, -12, -15, -30, -22, -84, -16, -35, -63, -94, -11, -9, 100, -37, 77, 21, 96, -99, -64, 28, 57, 74, -67, -70, 109, -56, -60, -99, 14, -122, -72, 38, 18, 34, -112, 107, 15, -47, 84, 122, -60, 80, -25, 99, -8, 117, -117, -46, 112, -107, -67, 14, 36, 103, 96, 103, -123, -54, -61, 82, -102, 31, -95, -127, -47, 73, -48, -46, 13, 27, 100, 29, 89, 19, 79, 19, 76, -55, -64, 62, -102, -65, 49, -99, 89, -37, -62, 59, -116, 79, -119, 43, -3, 55, -21, 17, 1, 48, -112, -22, \
124, 96, -65, -85, 69, 61, 44, 48, -107, -112, -127, -114, 57, 15, -32, 86, -93, -21, 81, -45, 77, 55, -112, 19, 50, -5, 125, 48, -83, 19, -7, -48, -85, 40, 34, -41, -24, -3, -91, -56, 98, 85, -115, 51, 113, 64, 33, 63, -126, 65, 15, 32, 25, -110, -65, 119, 40, -58, 98, -13, 5, 57, -121, 43, 22, -65, -118, -96, 122, -31, -13, 112, 21, 105, -109, -109, -82, 100, 29, -94, 0, 106, -96, 25, 30, -9, -108, -45, -114, -62, -95, 82, -113, 97, -66, -83, 18, -115, -109, 120, -22, 111, 29, 120, 72, -91, -90, 7, -95, -22, -89, 62, -92, 123, 9, 68, -116, 54, 68, 72, 85, 49, -24, -65, 16, -2, -36, -89, -11, -75, 27, -30, -48, -74, -2, -98, -89, -8, -20, 95, -33, 114, 113, 53, 20, 17, -25, -81, 48, 15, -59, 39, -75, 7, 81, -80, -42, 93, -40, -89, -68, 73, 38, 24, -63, -53, 31, 31, -124, 121, -104, 95, 30, -53, -13, -105, 89, -6, -10, 24, 70, -98, -31, -107, 102, -37, -80, -46, -107, -79, 84, -94, -41, 89, 63, 122, -50, 80, 42, 86, -8, 118, -29, 85, -91, 83, -82, 126, -100, 85, -108, 125, -37, 36, 49, 80, 103, 37, 7, 38, 92, -64, -44, -1, 2, 106, 112, -71, 5, 124, 59, 30, -53, -43, -124, 99, 34, -118, -31, -119, 50, -43, 79, -30, -109, 65, -102, -48, 61, 71, 73, -29, 3, -11, -68, -26, 73, -26, 43, -9, -6, -7, 12, 80, 8, 43, 105, 122, -3, 76, -124, -21, 102, -119, -62, 38, -12, 65, 16, -70, -86, -122, 50, -32, 21, 59, -91, -105, \
29, 126, -1, 8, -117, 25, 68, 17, 3, 4, 115, -105, -125, -106, 45, -14, -118, -20, -33, -64, -109, -76, 125, -36, 90, -87, -11, -70, -12, -36, 111, -66, 68, -2, -49, -61, 85, -12, 42, -12, -69, 57, -115, -108, -32, 62, -122, 121, 57, 35, 12, 110, 15, 18, 94, 46, -60, 114, 44, -12, -30, 74, 107, 111, -101, 34, 48, 106, 106, 18, 30, -19, 26, 74, 29, -75, 93, 36, 33, -25, 65, -64, 41, -72, -30, -5, 78, 53, 64, -127, 9, 95, -34, -84, 68, -81, 89, 80, 60, 100, -13, -28, -121, 37, 126, -33, 33, -67, 16, -38, 46, -22, 64, 69, -28, -24, -18, 59, -29, 111, -60, -41, 21, 52, 38, -72, 48, -109, -12, 27, -122, -101, -6, 103, -12, 71, -36, 113, 77, -110, 56, 30, 117, 52, 18, -67, 66, 104, -4, 13, -104, 91, 85, 103, 57, -107, 19, 93, 124, 111, 75, -21, 49, -46, 106, -48, -37, 68, -68, -79, -65, -97, 55, -54, 80, 92, 81, -19, 17, -126, -4, -107, -112, 56, -20, -75, -44, 58, -105, 120, 14, 29, 76, 23, -128, -89, -32, -103, -42, -111, 42, -123, -100, 20, 36, 73, 26, -41, 39, 112, -83, 50, -63, -108, 30, -109, 123, 31, -6, -30, -18, 89, 41, 5, -31, 34, 92, 110, -30, 42, -1, 60, 120, -99, -11, -116, -50, 51, 12, -25, 63, -69, 4, 78, -28, 114, -106, -9, 122, -121, -23, -43, -108, 30, -30, -128, -56, -80, -28, 97, -4, -84, -120, -124, 1, -46, -24, -111, -98, -41, 117, -112, -78, 96, 90, 75, -73, 25, -64, -89, -52, 120, -12, -120, 80, 88, 18, 66, \
-108, 32, -54, 26, 8, 80, 0, -50, 101, -8, 6, 90, 104, 27, -6, 19, -7, 90, 79, 86, 13, -23, 34, -22, 107, 46, -76, -110, -113, -87, -108, 41, -127, 66, 92, -115, 19, -90, -42, -66, 94, 107, 103, -119, -25, -103, 70, 88, -112, 108, -40, -42, 82, -99, -49, -33, -91, 51, -57, 96, -13, -4, 124, -76, -100, -14, -4, 37, 70, 4, -74, -50, -124, 99, -125, -99, 103, -28, 123, -122, -9, 24, 15, 75, 71, -15, 40, 2, 28, 46, 66, 2, 33, 10, 5, 117, -108, 54, 57, 49, 6, 94, 109, 1, -93, -53, -24, -108, -48, 32, -109, -57, 28, 116, -17, -1, -124, 83, 68, -105, 40, 110, 102, 52, -29, -64, -30, -57, -86, -92, 63, 79, 67, 111, 75, 104, -16, -33, 21, -112, -108, 110, -70, -89, -42, -128, 5, -88, 17, -20, 23, 122, 24, -111, -60, -33, 23, 109, -69, -21, -50, 11, -114, -52, 113, 22, -91, -59, 2, 104, 83, -22, -119, -29, 42, 83, -86, -86, 80, 89, 8, 33, -15, -52, -11, 26, -59, -72, -81, 35, -78, -68, 26, 64, -95, -78, 68, -114, 60, 66, 4, -74, -39, -126, 64, 79, 72, 72, -96, 107, 102, 82, -107, 118, -102, -122, -47, -64, 72, -85, 67, -65, -121, 41, 37, 73, -91, 92, -73, -27, -59, -80, -49, -99, 66, -73, -40, -2, 52, 54, 10, -86, 87, -95, 53, 51, -2, 120, 90, 92, -12, -96, 119, -119, 120, -62, 16, 0, -42, 112, 67, -23, 55, 60, 119, 116, 117, -92, 125, -37, 101, 69, -32, -83, -71, -24, -84, 60, 21, -28, 123, 71, -98, 70, -28, 119, 61, 15, \
46, 10, -107, -74, 73, -69, 94, 63, 59, 9, 71, -22, 89, -16, -117, 126, 94, 39, -36, 28, 13, -97, -24, 123, 113, -78, -86, -27, 115, 76, -109, -58, -70, -108, -73, -99, 80, 55, 95, -105, 58, 85, 30, 92, -25, 87, -75, -67, -106, -127, 44, 105, 61, 96, -115, 34, 83, -20, 77, -112, -106, -13, -101, -85, 13, -41, 35, -19, -116, -54, 82, -72, -56, 75, 60, 31, 13, -23, 39, -46, 18, -36, -124, 95, 25, 107, 10, 125, -103, 69, -86, 120, -92, -43, 119, 70, -65, -128, -62, -54, 69, 19, -115, 56, -14, 119, 30, -104, 90, 54, -82, 97, -114, -35, 22, 107, -23, 112, -125, 51, -72, 53, 17, -106, -21, 17, 123, -106, -82, -107, -108, -96, 94, 8, 83, -116, 92, 24, 116, -61, -93, -123, -10, -7, 117, 105, 40, -25, 83, 73, 14, 69, -38, 107, 9, 27, 19, 122, 50, 16, -80, 117, -105, 35, 35, -126, -85, -19, -122, -117, -59, -89, -56, -23, -74, 45, 92, 68, -124, -46, -6, 75, -69, 106, -62, -13, 103, 13, -11, -74, 126, 72, 42, -23, 1, -124, -35, 30, 18, -106, -69, 60, 55, -10, 64, 87, -1, -59, -122, 10, 96, -11, 34, 21, -125, 15, 32, -95, -16, 13, 33, -88, -1, -85, -80, 88, -77, 123, 124, 22, -78, -14, -19, 68, -76, 105, -122, 79, 18, 93, 111, 101, 31, 51, -5, 94, 0, 18, -107, 16, -6, 8, -37, 117, -42, 67, -44, -87, 28, -75, -53, -127, -7, -28, -101, -80, -3, 90, -32, 122, 100, 70, -119, 33, 9, 26, 58, -8, 94, 42, -79, 23, 6, -94, 113, 45, 17, 54, \
-107, -72, 82, -19, 44, -126, -62, 126, 53, -85, -74, -48, 54, -44, -117, -4, -10, -80, 103, -122, 82, -31, -20, -41, 83, -89, 82, 17, 15, -97, 55, 84, 51, 85, 52, 53, 94, 22, 4, 52, 12, 80, -25, 7, 119, 24, 44, -7, -14, -7, -16, 11, -110, 109, 16, -22, 105, -120, -81, -101, 15, 91, 86, -50, -114, 116, -83, 61, 9, -113, -85, 17, 58, 90, -105, -106, 87, 37, -81, 87, -106, 92, 14, 93, 104, 1, 38, -100, -26, -76, -19, -26, -125, -124, 95, 104, 8, -73, -114, 79, -29, 115, -76, -69, -121, 96, 44, -75, 64, -114, -105, -28, -62, -50, 64, -99, 100, -18, 13, -8, -108, 9, 122, 20, -109, 75, 65, -74, 32, -86, -77, 5, -80, 8, -25, -90, 125, -2, 64, 6, -16, 35, 38, 5, 11, 92, -105, 114, 25, -11, -2, -93, -89, -121, 9, -58, -21, 45, -5, -43, -2, 100, 57, 42, 59, 81, -123, 10, 67, 67, -46, -6, -86, 49, 99, -98, -95, 107, 109, 8, -123, -51, 39, -14, 62, 42, 101, 27, -46, -103, 109, -116, 31, -8, -47, 104, 98, 40, -74, 96, -29, 40, -74, -43, -17, 107, -42, 27, 38, 83, -32, 105, -35, -68, 108, -27, 110, -68, 105, -89, -1, -55, 72, -113, 72, -104, 48, 125, 40, 22, 109, -82, 70, -18, 36, -31, -38, -86, 1, 124, -70, -91, 58, -47, 115, 59, -9, 89, -74, -43, -5, 97, 5, 21, -29, -80, 62, -66, -31, 82, -47, 59, -42, -13, 124, -22, -107, 38, 86, 0, 117, 68, 118, 76, 62, -83, 116, -127, 112, -12, 63, -51, 50, 11, -44, 19, 95, 113}
#define BIAS_SHIFT 0
#define KAPPA {213, 32, 232, 210, 236, 30, 42, 189, 9, 255, 155, 145, 19, 169, 183, 148, 251, 166, 14, 236, 171, 67, 10, 201, 250, 23, 135, 174, 68, 100, 43, 67, 11, 125, 204, 190, 248, 16, 112, 253, 149, 92, 13, 188, 225, 231, 235, 153, 219, 96, 232, 117, 102, 64, 196, 180, 209, 46, 60, 249, 57, 55, 94, 87}
#define LAMBDA {-215419984, 401043776, 126764232, -574989376, -975244928, -802353472, -740182336, 507502784, -1066688768, -253698512, -1007287424, 284188096, -473326080, 754383104, 1011999168, -1049109952, 39073872, -126445608, 225472480, -356228256, 517471008, -215755952, 741953984, -229072304, -1064231872, -749842368, 942695360, -731340992, 994150720, -796686784, 639713088, -312475520, 273728960, 393105824, -874212608, -606867712, 89567704, -234183280, 1009021312, -551695104, -948708608, 793192512, -702116864, 261906768, -595051328, 963432320, 5347726, -806545216, 923054208, 108852048, -507810880, -103129112, 286303424, 829158656, -789921728, 546640384, -492391296, 575107328, 265868832, 223346736, 758846144, -235660640, 698476672, -58778100}
#define OUT_SHIFT 20
#define OUT_MULT 0
#define IN_INT8 {251, 164, 225, 25, 174, 137, 160, 113, 43, 20, 93, 38, 195, 206, 214, 9, 116, 49, 78, 195, 153, 138, 160, 158, 30, 113, 148, 236, 152, 83, 106, 4, 69, 102, 212, 160, 55, 218, 14, 39, 226, 55, 9, 246, 216, 108, 4, 112, 243, 71, 14, 116, 102, 108, 212, 170, 184, 140, 235, 154, 128, 49, 170, 221, 7, 234, 243, 134, 0, 218, 173, 106, 168, 163, 12, 97, 225, 121, 36, 170, 69, 194, 192, 76, 121, 52, 178, 117, 170, 57, 49, 126, 69, 114, 148, 61, 75, 61, 179, 200, 32, 202, 223, 222, 70, 167, 44, 235, 121, 50, 38, 151, 108, 168, 185, 217, 114, 244, 164, 158, 150, 88, 167, 66, 59, 241, 192, 218, 146, 89, 43, 196, 28, 162, 42, 41, 120, 166, 190, 134, 105, 55, 218, 247, 121, 197, 42, 91, 241, 56, 173, 204, 216, 122, 121, 142, 39, 139, 140, 76, 205, 94, 34, 52, 166, 228, 175, 153, 21, 202, 118, 8, 98, 72, 168, 170, 76, 43, 165, 134, 168, 0, 180, 103, 89, 198, 183, 139, 237, 99, 63, 180, 187, 200, 253, 100, 159, 244, 159, 1, 29, 102, 252, 251, 18, 100, 212, 119, 37, 110, 224, 84, 134, 102, 210, 107, 86, 143, 140, 203, 41, 34, 201, 125, 233, 36, 54, 114, 6, 189, 203, 242, 78, 127, 83, 115, 18, 23, 104, 203, 58, 238, 136, 72, 79, 86, 216, 251, 81, 8, 138, 177, 113, 73, 177, 157, 18, 140, 137, 19, 248, 32, 94, 151, 170, 209, 154, 188, 26, 58, 51, 135, 211, 147, 94, 99, 112, 171, 76, 84, 158, 205, 115, 197, 14, 199, 32, 66, 124, 46, 31, 65, 214, 192, 215, 24, 13, 227, 188, 107, 224, 33, 118, 33, 210, 113, 159, 103, 193, 27, 170, 57, 6, 38, 232, 249, 23, 115, 61, 149, 94, 83, 139, 203, 154, 89, 111, 127, 157, 158, 51, 166, 21, 198, 209, 211, 173, 94, 125, 149, 244, 104, 139, 12, 130, 217, 160, 134, 8, 186, 125, 29, 60, 163, 153, 129, 217, 58, 159, 89, 238, 249, 101, 56, 221, 142, 81, 140, 164, 59, 125, 165, 73, 242, 152, 180, 191, 235, 134, 232, 75, 235, 153, 9, 251, 81, 90, 171, 25, 254, 199, 201, 184, 64, 34, 44, 188, 229, 241, 209, 157, 208, 77, 26, 177, 123, 223, 93, 106, 250, 214, 127, 229, 8, 57, 221, 62, 7, 101, 25, 247, 45, 14, 105, 220, 19, 174, 192, 0, 184, 193, 84, 75, 13, 18, 53, 1, 110, 197, 174, 7, 14, 17, 81, 56, 182, 186, 11, 228, 178, 198, 91, 141, 64, 252, 26, 138, 207, 239, 198, 99, 7, 115, 74, 176, 94, 235, 23, 42, 74, 68, 156, 147, 208, 36, 177, 244, 186, 75, 240, 48, 53, 246, 125, 21, 118, 201, 12, 170, 14, 165, 238, 143, 149, 44, 218, 36, 21, 126, 161, 19, 166, 14, 109, 34, 69, 150, 80, 252, 142, 105, 34, \
108, 157, 119, 95, 200, 229, 219, 27, 148, 173, 46, 101, 50, 136, 115, 2, 163, 133, 85, 143, 72, 126, 244, 25, 86, 166, 66, 100, 60, 23, 24, 213, 225, 113, 253, 237, 85, 97, 193, 110, 196, 219, 219, 153, 235, 116, 186, 225, 26, 24, 207, 228, 119, 96, 11, 254, 244, 183, 65, 3, 101, 35, 102, 213, 77, 180, 151, 2, 76, 58, 219, 7, 51, 145, 206, 63, 58, 140, 22, 249, 36, 115, 13, 193, 100, 71, 43, 151, 189, 38, 112, 190, 163, 20, 56, 33, 184, 26, 175, 62, 183, 215, 91, 40, 51, 156, 28, 119, 86, 71, 44, 56, 120, 228, 155, 160, 233, 8, 4, 95, 164, 102, 91, 146, 138, 249, 65, 12, 234, 152, 248, 121, 202, 212, 162, 0, 183, 125, 77, 217, 118, 135, 175, 234, 250, 237, 250, 6, 179, 156, 8, 207, 102, 0, 133, 119, 28, 18, 202, 211, 192, 196, 88, 241, 138, 226, 245, 248, 78, 2, 207, 85, 231, 2, 182, 243, 8, 33, 159, 115, 1, 136, 247, 177, 250, 53, 75, 10, 125, 14, 72, 22, 132, 69, 242, 58, 136, 237, 183, 83, 134, 29, 71, 78, 153, 109, 220, 79, 239, 253, 219, 69, 175, 91, 228, 176, 244, 76, 32, 126, 102, 90, 194, 63, 174, 145, 27, 117, 41, 245, 1, 9, 80, 23, 147, 244, 27, 63, 100, 227, 21, 219, 79, 245, 163, 55, 59, 237, 226, 42, 99, 104, 20, 232, 160, 230, 59, 163, 87, 181, 203, 232, 190, 109, 249, 200, 111, 191, 69, 136, 131, 179, 149, 23, 205, 230, 194, 129, 220, 65, 11, 117, 230, 188, 97, 182, 68, 229, 67, 201, 143, 193, 83, 165, 106, 189, 91, 76, 161, 99, 208, 230, 162, 211, 67, 31, 65, 97, 100, 238, 164, 108, 248, 95, 245, 27, 184, 141, 28, 98, 121, 124, 127, 32, 38, 203, 100, 237, 78, 63, 124, 12, 217, 215, 27, 60, 179, 126, 155, 181, 33, 182, 143, 198, 142, 218, 137, 237, 250, 5, 108, 239, 159, 142, 146, 242, 63, 86, 254, 198, 100, 235, 81, 157, 197, 130, 91, 237, 154, 60, 59, 115, 148, 184, 158, 46, 72, 38, 232, 175, 150, 5, 215, 100, 98, 109, 95, 148, 52, 189, 96, 116, 239, 52, 61, 133, 157, 83, 3, 159, 123, 107, 160, 4, 159, 142, 180, 197, 80, 210, 252, 80, 79, 30, 142, 24, 156, 7, 137, 74, 237, 89, 47, 172, 109, 52, 10, 121, 202, 232, 226, 153, 187, 244, 242, 62, 90, 188, 249, 128, 209, 106, 5, 33, 170, 11, 194, 245, 204, 166, 138, 127, 15, 114, 195, 209, 249, 133, 249, 35, 100, 159, 44, 107, 43, 69, 147, 215, 187, 250, 46, 227, 103, 65, 85, 190, 164, 68, 28, 123, 74, 65, 40, 96, 223, 35, 14, 226, 188, 32, 209, 55, 194, 92, 167, 108, 145, 130, 66, 160, 149, 145, 225, 173, 252, 156, 68, 67, 124, 146, 37, 93, \
65, 102, 92, 92, 253, 123, 24, 212, 70, 25, 143, 199, 188, 82, 229, 59, 234, 219, 63, 108, 94, 217, 156, 61, 50, 20, 30, 36, 221, 244, 89, 154, 54, 15, 63, 83, 194, 130, 114, 103, 36, 46, 13, 156, 172, 52, 8, 226, 126, 208, 33, 47, 153, 164, 169, 148, 139, 74, 112, 102, 182, 6, 83, 207, 250, 38, 232, 56, 142, 0, 48, 55, 136, 39, 175, 233, 128, 11, 28, 252, 28, 158, 176, 190, 153, 141, 28, 8, 235, 77, 7, 246, 24, 86, 95, 173, 90, 251, 251, 35, 234, 136, 138, 183, 246, 166, 8, 130, 119, 180, 48, 227, 98, 183, 209, 165, 80, 153, 126, 81, 114, 183, 70, 49, 79, 32, 115, 217, 97, 177, 161, 132, 97, 245, 46, 249, 59, 74, 42, 114, 65, 160, 184, 81, 252, 251, 188, 219, 195, 49, 163, 115, 240, 83, 14, 17, 115, 109, 244, 57, 149, 200, 22, 204, 19, 64, 113, 184, 164, 69, 5, 178, 85, 149, 114, 178, 87, 18, 145, 125, 46, 37, 80, 179, 129, 153, 244, 152, 98, 162, 118, 142, 110, 60, 220, 170, 175, 194, 133, 55, 83, 122, 48, 25, 193, 202, 112, 223, 248, 139, 123, 132, 98, 38, 108, 154, 196, 94, 201, 124, 22, 182, 74, 227, 4, 233, 154, 175, 37, 116, 26, 201, 34, 166, 79, 204, 80, 226, 170, 47, 182, 201, 199, 124, 247, 96, 86, 231, 181, 28, 5, 147, 245, 109, 109, 118, 226, 198, 246, 58, 174, 125, 43, 96, 171, 234, 197, 137, 18, 145, 247, 54, 204, 61, 247, 214, 251, 95, 241, 188, 227, 166, 220, 63, 213, 143, 12, 236, 128, 222, 156, 205, 174, 205, 42, 105, 150, 32, 115, 157, 198, 68, 37, 102, 43, 143, 211, 243, 132, 55, 87, 11, 55, 161, 123, 51, 5, 163, 78, 189, 219, 46, 142, 200, 10, 161, 252, 136, 43, 65, 204, 33, 110, 201, 14, 66, 194, 227, 239, 120, 233, 46, 83, 157, 184, 74, 120, 86, 10, 126, 196, 141, 182, 157, 8, 5, 140, 124, 60, 245, 34, 77, 55, 22, 222, 187, 185, 17, 239, 155, 145, 140, 3, 11, 189, 213, 89, 75, 36, 167, 9, 79, 68, 63, 230, 183, 113, 130, 89, 18, 35, 175, 12, 241, 96, 141, 42, 62, 53, 240, 167, 97, 186, 181, 13, 231, 1, 189, 86, 31, 183, 52, 244, 67, 150, 228, 112, 171, 79, 45, 110, 44, 193, 163, 45, 6, 53, 106, 140, 212, 154, 144, 254, 59, 216, 127, 84, 37, 115, 95, 200, 149, 98, 117, 220, 105, 233, 0, 89, 18, 81, 181, 25, 133, 38, 59, 166, 18, 182, 225, 191, 249, 123, 194, 184, 242, 182, 228, 45, 220, 145, 124, 162, 169, 99, 152, 208, 109, 160, 123, 182, 85, 94, 90, 152, 200, 129, 254, 166, 154, 242, 154, 11, 56, 32, 120, 12, 42, 208, 126, 212, 95, 249, 151, 135, 137, 225, 10, 73, 68, 4, 169, \
106, 226, 20, 59, 214, 5, 136, 204, 241, 178, 150, 141, 26, 66, 113, 108, 144, 148, 64, 8, 97, 119, 120, 105, 82, 133, 84, 108, 192, 14, 9, 244, 205, 94, 201, 128, 78, 218, 15, 226, 78, 66, 168, 155, 98, 112, 178, 187, 100, 188, 42, 52, 2, 7, 87, 153, 182, 196, 219, 9, 197, 214, 96, 231, 132, 202, 237, 241, 66, 222, 110, 103, 184, 79, 150, 67, 192, 67, 32, 211, 102, 5, 153, 154, 212, 136, 155, 112, 200, 137, 225, 35, 225, 243, 1, 153, 212, 152, 210, 168, 98, 240, 108, 112, 22, 53, 6, 129, 129, 214, 196, 126, 108, 251, 180, 215, 211, 236, 62, 58, 6, 67, 145, 115, 52, 222, 140, 175, 206, 183, 141, 206, 47, 155, 56, 126, 37, 205, 189, 135, 166, 21, 222, 123, 132, 148, 184, 201, 67, 143, 98, 188, 156, 49, 1, 252, 17, 40, 126, 59, 254, 193, 106, 106, 89, 32, 111, 11, 26, 231, 196, 238, 186, 0, 241, 180, 137, 85, 24, 235, 7, 184, 19, 70, 191, 103, 182, 111, 43, 172, 51, 237, 149, 52, 56, 127, 176, 77, 108, 45, 168, 96, 187, 97, 99, 184, 240, 163, 173, 228, 21, 115, 118, 32, 158, 18, 103, 24, 140, 253, 0, 86, 229, 179, 41, 30, 46, 211, 129, 240, 146, 12, 17, 87, 118, 39, 212, 73, 91, 252, 225, 203, 78, 16, 242, 220, 30, 148, 60, 65, 8, 9, 71, 108, 77, 95, 82, 234, 117, 16, 164, 135, 108, 222, 162, 188, 166, 152, 75, 180, 127, 17, 81, 20, 208, 219, 100, 248, 178, 117, 190, 204, 199, 87, 74, 184, 85, 54, 122, 27, 68, 113, 2, 200, 136, 156, 47, 108, 138, 133, 121, 193, 102, 9, 234, 21, 7, 156, 240, 225, 148, 2, 134, 107, 94, 27, 93, 69, 8, 189, 161, 81, 78, 188, 101, 80, 172, 131, 205, 162, 38, 160, 60, 151, 90, 60, 74, 115, 42, 235, 179, 15, 90, 68, 208, 13, 144, 206, 25, 136, 196, 193, 64, 180, 82, 112, 37, 103, 229, 203, 125, 96, 94, 234, 215, 136, 239, 1, 248, 102, 231, 63, 119, 168, 192, 25, 215, 74, 138, 77, 40, 213, 35, 65, 156, 215, 24, 121, 70, 77, 195, 167, 245, 167, 115, 157, 169, 54, 34, 166, 54, 73, 0, 136, 44, 0, 38, 220, 39, 108, 123, 41, 88, 87, 139, 14, 132, 27, 154, 169, 196, 232, 245, 4, 24, 119, 88, 135, 248, 5, 65, 185, 221, 192, 180, 196, 112, 253, 157, 133, 142, 39, 151, 207, 163, 202, 175, 113, 229, 74, 104, 85, 5, 223, 251, 211, 229, 113, 91, 17, 161, 188, 45, 251, 195, 25, 237, 182, 113, 41, 66, 5, 56, 4, 10, 135, 136, 209, 10, 198, 185, 2, 111, 216, 225, 109, 16, 126, 0, 118, 248, 1, 0, 145, 38, 103, 20, 110, 76, 139, 50, 118, 164, 210, 214, 237, 131, 54, 38, 44, 234, 169, \
65, 21, 244, 30, 9, 30, 135, 111, 162, 246, 176, 235, 67, 56, 155, 45, 52, 74, 95, 179, 134, 17, 162, 174, 163, 214, 154, 170, 131, 174, 187, 198, 38, 156, 1, 48, 251, 21, 164, 10, 45, 190, 201, 12, 128, 109, 69, 243, 231, 6, 41, 242, 48, 204, 40, 52, 234, 216, 122, 228, 224, 105, 55, 242, 34, 223, 27, 51, 234, 162, 40, 202, 135, 176, 166, 160, 59, 44, 6, 98, 151, 254, 95, 80, 43, 140, 17, 18, 19, 46, 100, 145, 185, 187, 123, 233, 24, 242, 24, 161, 185, 133, 89, 98, 17, 252, 133, 233, 230, 24, 86, 204, 182, 83, 191, 79, 191, 181, 223, 172, 1, 29, 148, 69, 154, 222, 205, 119, 66, 188, 128, 225, 61, 78, 225, 145, 158, 53, 5, 132, 163, 241, 219, 28, 63, 202, 195, 76, 59, 88, 148, 181, 196, 115, 137, 160, 226, 92, 97, 103, 57, 50, 106, 44, 3, 153, 23, 198, 38, 151, 120, 238, 11, 128, 154, 183, 191, 77, 171, 207, 229, 204, 22, 22, 42, 251, 99, 18, 131, 240, 67, 211, 202, 208, 102, 251, 37, 157, 121, 135, 88, 190, 100, 26, 3, 68, 71, 12, 145, 237, 239, 91, 132, 32, 126, 165, 172, 231, 79, 111, 139, 211, 231, 233, 61, 183, 246, 109, 94, 23, 187, 129, 248, 62, 214, 8, 234, 196, 186, 20, 118, 68, 161, 153, 93, 198, 160, 48, 157, 178, 7, 223, 15, 49, 50, 0, 22, 244, 218, 200, 44, 123, 0, 101, 9, 134, 72, 94, 1, 159, 230, 220, 81, 194, 38, 139, 117, 134, 235, 189, 153, 125, 221, 239, 44, 47, 67, 48, 91, 209, 125, 25, 180, 126, 219, 45, 118, 0, 169, 93, 130, 236, 208, 214, 246, 191, 103, 178, 48, 22, 79, 84, 101, 226, 193, 34, 240, 87, 115, 110, 192, 95, 189, 160, 237, 14, 101, 52, 208, 194, 12, 69, 164, 85, 10, 104, 159, 166, 179, 242, 194, 169, 181, 40, 105, 28, 2, 145, 193, 137, 219, 85, 155, 93, 160, 106, 225, 49, 0, 172, 249, 73, 193, 192, 48, 79, 124, 103, 213, 193, 179, 90, 168, 108, 33, 247, 213, 89, 243, 126, 188, 189, 124, 28, 204, 240, 170, 52, 58, 187, 174, 254, 110, 56, 150, 109, 81, 64, 87, 228, 58, 137, 67, 59, 202, 39, 182, 224, 236, 120, 152, 145, 237, 168, 192, 69, 148, 246, 169, 3, 175, 37, 7, 6, 208, 207, 27, 0, 60, 75, 199, 71, 28, 46, 63, 193, 208, 176, 58, 225, 102, 58, 85, 183, 124, 53, 170, 95, 179, 207, 157, 121, 213, 125, 132, 108, 68, 55, 251, 234, 90, 85, 65, 33, 38, 195, 22, 87, 45, 205, 147, 144, 163, 128, 113, 172, 211, 55, 36, 64, 174, 90, 198, 160, 239, 206, 90, 96, 186, 19, 232, 230, 15, 219, 164, 165, 191, 213, 29, 209, 165, 191, 119, 158, 163, 50, 24, 9, 88, 19, 113, 117, \
